0.4797503528486929,0.4750179489908009,-0.20808434703294879,-0.3463709353580292,-0.5892115034997898,0.604246508182968,0.7419433136977907,-0.5143467679052,-0.48798008352846334,-1.3029729339441787,0.685385710609487,0.6529014703681344,0.35710655802100527,-0.5074734499155789,-1.6854018193600282,-0.1453713711389213,-0.23595733445958608,0.5188251833125538,-0.8435238708039181,0.5472799406706313,-0.5178715886578195,-0.38390923208899125,1.0945736915023567,0.5971020146930699,-0.7069892227228294,0.39794528284315145,-0.24611441295731962,-0.22326441226166638,-0.0770298165302227,-0.6761296869753655,-0.3479899971986473,-0.10803717115706889,0.1796590723316651,0.3068905534822037,0.17807319512469902,-0.5277964040071419,0.33610321744154414,0.07973702528257441,1.1206169384881373,-0.5460876119513954,-0.18602898265502985,-0.5600979441519178,0.34321213877617907,0.5472837072129093,0.6871001871466144,0.2526322355847657,0.7174406198294045,-0.21834986453713964,-0.5167792531694155,0.025048639070245887,-0.5300771064075405,0.027178305322435866,-0.7763573367271106,-0.9548942280842079,0.7920732616234444,-0.3102784327600859,0.5969209431380631,0.3504586320929576,-0.15226588280608352,0.5095316857846853,-0.14888847821970658,0.8596974939961997,0.3751076714357253,0.16263946092124557,0.2573028229020982,0.00782926339261444,-0.5329012612824419,0.5713386015638462,-0.2747616650767769,0.2734138934775237,0.42487079803640154,-0.12284233263185212,0.09997909470852791,-0.47564168888684727,0.10224562360197846,0.3832666129844225,-0.8347235674635366,0.9147998815136534,0.15133605325034222,-0.14664647006549567,-0.29158143753192467,-0.3269249046993172,1.0667332416409465,0.2932501273396239,-0.11201981806150688,-0.27032793176844505,-0.552984230964056,0.18080564351774883,-0.32757822677397064,0.29414615387086124,0.5016761353133169,-0.1314657291278167,0.15784472479528505,0.07718081557318314,0.12729400757207415,0.4727974888531913,-0.017239170137647874,-0.19330943266010642,0.783031742803373,0.1224985184812257
-0.3049057716500925,0.31702323355708645,0.03246352220987717,-0.0110982674245432,0.6976194777987954,0.3145870529453595,0.07839596114579021,0.05849725687117707,0.7728856879070831,-1.118110027778137,-0.20192113376190038,0.2201728170319367,-0.18451561226433616,0.7007149632576382,-1.1382549631982413,0.4880667532148088,0.7189810678971034,-0.3174002620563403,-0.46870425314374375,-0.3775000627283175,0.7150166244281214,0.16792424896754884,-0.6459473093281124,0.42464959308088834,-0.24515728725338784,-0.32216653329456,-0.649651292943555,-0.22258481972952404,-0.33620864821514507,1.6918875151683335,0.12999178210930198,0.5815891775358072,-0.7752844024825655,0.6860005848434936,0.4068782245669207,0.007582710012443985,0.2657466048637013,-0.4957575886254148,-0.15677154765465176,-0.4266101944679131,-0.5480524292512833,-0.2898980838482854,-0.023782488122487795,0.5085070232274618,0.2607161306595782,0.3898989678055094,0.25251837684496653,0.3041759669798822,0.1702715463729513,-0.06967306347497783,0.3188296921509061,0.2814693917987898,-0.7635224322524284,-0.39852273452199066,0.5201907498690228,-0.8020199614061747,-1.090440099796043,0.23266926607081254,0.500765713362769,0.3192572494314452,-0.21911325034138288,-0.8760660817845367,-0.31074496504060406,-0.7605657575709034,-0.024141265303344542,0.8993704475546996,-0.08513345815159265,-0.09702707724658154,0.060356314891353964,0.2342641772962053,0.18714360658721468,0.011874084571482058,0.4073365290210717,0.2618051742038245,-0.48440243523646337,-0.054031448915099436,0.33536841547823115,0.17290840219287787,0.1900099845866879,-0.5376058586824264,-0.9049457426853496,0.12928805082423034,0.07692023451890322,0.2800130665696666,-0.14416538665185047,-0.34168967352369295,-0.6644413776662996,0.4015584077098926,0.5588863434717519,0.3509453834815224,0.6821879620901334,-0.9858104949666779,0.02771299029104949,-0.30887150269052316,-0.8350210653654915,-1.2416036329234583,0.3458126056477144,-0.16153227859764557,0.3871312684968068,0.7655180305021747
0.20631407221712963,-0.019876166613019237,0.3464203318417992,0.33666145094932126,0.5815486090970109,-0.056632005178811486,0.18403932059176306,0.9016444353592907,-0.124554621106229,0.11737485495503144,-0.39102648365455644,0.14189098573706446,0.44591600002945586,-0.19121870042203903,-0.8334444959077661,-0.34491534526499207,-0.2447803835405457,-0.7431348714730532,0.459930627529754,0.35854727469539277,-0.0475779022531106,0.12923990904467994,0.42622688048383495,-0.3121692046034689,-0.20986452350361198,0.0220407971003382,-0.46627952734049943,0.1362657738881118,-0.18853483312136626,0.5005285074383159,-0.38433721720169645,-0.3953903789150103,-0.07706613898841277,-0.6077275575193982,-0.5347395490485024,-1.0059702649517919,0.6947498401541687,0.6392465215978896,0.07375671992356123,0.47561141195400647,-0.5230680208541498,0.45299142772947876,-0.0554566743373641,-0.5343877702513301,0.19973105127035037,0.2290538398122553,0.6821886857092366,-0.10155101804427467,0.40523699068544033,-0.3356030679457977,0.4858749560194907,0.9840046763157575,-1.0158978130013925,-0.4529573114425381,-0.3349567046434425,-0.2573883466886014,-0.25300500031358475,0.020335270509004855,-0.26609125518830495,0.48212966777895866,-0.38967344694509676,0.47316428762412127,-0.06907799665419129,0.12885160804224186,0.1774428341113314,-0.02209403551765579,-0.2570540675150305,-0.14706885960376948,-0.2951707471313394,0.3538267435135238,-0.469367480041785,-0.39960456797620963,0.5647036983393784,-1.109570564886255,0.5753285697456237,0.06727182744746421,0.16857169523054658,0.027835185704212388,0.335781220945066,0.7069251677484216,-0.2571617392016746,-0.1652777746212141,0.08371656584063818,-0.47218161854999063,0.27284328138549213,-0.1879518111844511,0.5160318305360178,-0.4426866591622428,-0.030910700124615484,1.2585177554131735,-0.5750383817247174,1.0552008828837147,0.3914266210975492,-0.543031778181014,0.09670472370454458,-0.152404271528355,-0.00722114713875164,-0.7672252309474931,0.28742906162179577,0.13828760205124874
0.5830639466562915,-0.3582511252376861,0.32828375800598986,-0.5539331992307887,0.5303862018703291,0.12024658906315754,-0.11856026272966755,-0.8159398971081563,-0.8825189905449845,0.12897361085162448,0.23687481257511045,0.2911171955073561,0.4534432866150416,0.685419649439461,0.6589143377556979,-0.4768139162211573,-0.0717399847519334,-0.3267625005878649,0.2068009090026686,-0.5662487474581573,0.015874647106186527,0.3004505649056485,-0.7089839302533318,0.13339748276325816,0.1680070379243859,0.04756303907120149,0.5547934281595235,-0.7986535580301924,0.6966522070956204,0.21860282212496063,-0.5225341870757886,0.09771082708389563,0.09798404295660498,0.053595168973460006,-1.0074175995066967,-0.047513329080514616,1.4285282177983345,0.5482041386600974,-0.3713263836899899,0.7201076882859138,-1.0324496804794867,0.38375260547208284,-0.3429671816126518,0.10973444446246301,-0.43554022890722394,0.5159821369540496,-0.38612786425331624,0.3563788681600471,-0.9508761486862896,-0.05967922507076378,0.10285393442917083,-0.18307361204789888,0.7619197164993051,0.03845359746427461,0.0393151025520345,0.10822066179908915,-0.04481267788984644,-0.765050924653507,0.19120596510762833,0.3402219087625427,0.03432133314369189,-0.14551835744499494,0.12001129511735666,-0.3193768568323975,-0.08368151567319368,-0.9389946704823717,0.34277757203223574,-0.5673062295486446,0.34536232623564045,-0.2368159944582825,0.765583876210176,0.3139859215530256,-0.7155077907329235,0.1769467638515048,0.20517277206921417,-0.8876087209354404,0.30633321416503445,-0.8742327957491997,-0.22996941397452894,-0.7231161045549331,0.32005598791178036,-0.6180538715317955,-0.22925721416928144,-0.39587741563977136,-0.45037850664381185,0.10125795719808722,0.2068024788267708,-0.5131443291808773,-0.08888492478163429,-0.20905996615530736,-0.4354164981305391,0.3989855340694948,0.32850295277309566,-0.4164437049007139,-0.09381302274845879,-0.8144325781605003,-0.026511652516192134,0.09886245152491942,0.08635490995662494,-0.17172689586793363
-0.5559863577667615,0.2182919971537074,-0.2429638958067977,0.25959732762309146,0.13935267138469337,-0.6132220147510656,0.38814695333158644,0.1712913393658057,-0.8827877920740035,0.20207363943616824,0.5686499284665933,-0.5110482143676207,-0.13934970791000478,-0.07909144756782388,0.34654921210537387,-0.7574600642581212,0.022938436323596573,0.4221115819827815,0.04959997060141055,-0.8307324035375528,-0.5351983410927961,0.42557481369485534,0.1270917063114477,-0.24060232648430932,-0.7139494594662634,0.24131112519446152,0.35704466067970214,-0.18058935699722994,-0.4406267301983242,0.09480845238120388,0.6457368757371531,-0.05182004241438917,-0.2154428717286681,-0.7163296221797233,-0.6281878209685261,-0.4500187649355206,-0.2786067992283764,-0.17538165750156132,0.6051076991021351,-0.03267175291444698,-0.4277774875040403,0.554714874665259,0.4966366389130903,-0.41870903772755336,-0.07724718392832021,-0.5275587351461632,0.36200626247059586,-0.04785767978847136,-0.9473224044569721,0.48546975346611476,0.5207929621829122,-0.27982425490513246,-0.4763041717190972,0.03369980313017799,-0.656083743655583,0.4624819618304039,0.1284480901636691,-0.10204925621954687,0.2805184529668396,-0.507889407633692,-0.01388940900101233,0.05429663227740489,-0.3597188617851306,0.34736462029770826,-0.0873717680186278,0.2026231615539969,0.6538426822627774,-0.7171203005204086,0.2798449326678808,0.20793420817420138,0.8121055990327195,-0.4322252976674719,-0.6044467458162516,-0.3926240522989891,0.011888533797589506,-0.7201176784023553,-0.16305131535606301,0.6480852694120194,0.0190681078884932,-0.4792206253873975,-0.19089300177241741,0.2816595788195202,0.5283309788528345,-0.7832206851090423,0.6947457981901827,-0.1621059123076388,-0.325279000981709,-0.87645610201086,0.33919637660457697,-0.1916697690893957,0.24356271966511622,-0.386917035921126,0.8068451993325967,-0.47912517708237334,0.05206873410834602,1.591049353827531,-0.3771734324738608,0.5076700936105133,0.1466856520357607,0.13099534050033956
