0.03789458243930321,0.031070917923250542,-0.07190390828474794,0.055792367479762364,0.07275558990319723,-0.08971857357466181,0.04038381391739736,0.02886445243553068,0.08461143567112117,0.16551291197204723,0.11151470111262946,0.03561469821985013,-0.09446694141033792,0.06622357971454,-0.06727446405373233,-0.050199845724807415,-0.02472678853006679,0.21893849052059855,-0.11301315634949093,0.024419475244828237,0.06784828727687918,-0.006575535072905832,-0.16312576451088795,0.020421671578732314,-0.10487102860155846,-0.029428944908435808,0.05165847392174747,-0.01757580093403003,-0.027251950783770025,-0.06623985535723957,-0.0323193093505581,-0.08616345014078565,0.06540401366476954,-0.018710805052356876,0.06892985611304017,0.15756530966484675,0.1289793892011508,-0.1037174532550182,0.1014914389407853,-0.08311137115129563,-0.08966040167854217,0.025569967509591326,0.06399958835401329,0.06757086541086221,-0.07265333028680258,0.05670309441560152,-0.14596722450684124,-0.20568488451832662,-0.025169172817811936,0.14324483246603223,0.12547810494221695,0.11234202800995766,-0.040700026004164516,-0.03567140965077471,-0.2045910688131145,-0.004410088856635591,0.094024841040147,0.17232925508999264,0.009912687799474192,0.15236030413303053,0.045653436527782545,0.09242119055819613,0.028774089444622977,0.020505536803002322,-0.17334272061062916,-0.06106308127130855,0.1369564161850448,0.07546945945884063,-0.0532584734853975,0.00601712407107834,0.11184477531444331,-0.029534001616036705,0.08346266646433503,-0.06732327456598829,0.09956733173302867,-0.04689444170930022,0.052164625346278665,0.004923856558016728,-0.04147718472617643,0.04141239707188141,0.02855018066581343,-0.1178312783470819,0.18396394383971892,-0.254285159848484,0.2161878726071922,0.05591421991778968,0.09889535453380649,-0.007651821668774823,-0.036681090311440574,0.23216402814943626,0.07970863200771691,0.06219017205928991,0.01687463972866719,0.0036849882065774957,0.13350038264042652,-0.04791454479187335,0.07829624401450179,0.12039536234956227,0.11412123415971265,0.09011012327928533,-0.16585724408717153,-0.18145428648209527,-0.2651620819655105,0.012429877698143826,0.11491522259912745,-0.12626786339186355,0.07940090957319541,-0.08198710372345432,-0.1316384844133471,-0.09549370798449616,0.15328283611987095,-0.08403093800196149,-0.058017487333019736,-0.055349949814410576,0.052829215176482994,-0.11236773810190513,0.04165263939303012,-0.027290044280281936,0.14811462402480133,-0.1673875836563975,0.13084814246040893,-0.04817963040397958,-0.022579931865428723,-0.04627009912320415,0.026411724909027396,0.06501056399180166,-0.06926753060385042,-0.1398022186269825,-0.03177946236142974,-0.0482876448276717,-0.0769737469787884,-0.034715224711788055,-0.07764315749173539,-0.060303901516758865,-0.0957927506819146,-0.16560780950086906,-0.07282212829299355,-0.0680490882581838,-0.01570011531247051,0.0700391488596653,0.009894977365977942,-0.022661229801935696,-0.04141327918621836,-0.2296546667287986,-0.05954230577872602,-0.08158823181280961,-0.09333439725940051,0.1308603446788435,-0.08347940737786241,0.18970173867692702,0.23647746792454827,-0.10013654229943383,0.04915073002215105,-0.121150892123359,0.1342725605177197,0.09493893464594354,-0.13967037089660103,-0.2451083695801037,0.00686487797420586,0.19223048414898825,0.10500945012413224,-0.10838860257730294,-0.002565136381362748,-0.06251906530141593,0.012568716165678529,-0.012647674272681262,0.16282962310128893,-0.1221333212468294,0.02882645704506481,0.023922270219347758,0.10151508260595393,-0.11561716376840697,0.026291599220169472,0.018103790415155925,0.03060816943465182,-0.25121883755317526,0.21064018643768342,-0.23568385894324873,-0.11255232908286138,0.020315959611989308,-0.10609547383464156,-0.17052048811277146,0.026685489119118073,-0.0675463556759227,0.005671269128271813,-0.16670588133097133,-0.047584119022972556,0.0029855657694903594,0.18985574915361025,0.06559330269743133,0.0012296657084768343,0.0028512293786279955,0.1159592236897522,0.08225326883757203,-0.0679831997126637,0.08518160461142554,-0.08920595331664709,-0.08749406438359675,-0.17418167221940864,0.15175643368276526,0.028823034310172486,0.012683881213273277,0.03232040791152719,0.15541184525108764,-0.08368426247951449,-0.016981993244251262,-0.12794001850297773,-0.04061304634281974,-0.0666797217676164,-0.17217467171046918,0.1313277794727489,0.08392864486035598,-0.008986868498613442,0.06053596379444697,-0.10421378774162134,0.014745267058993448,0.012087360398544501,0.07237389515535873,0.12031452202777382,-0.09484578745226234,0.08529529082340791,-0.07035397176835816,-0.22890746821526342,0.09879668046085237,-0.1073465773028123,-0.006195317968515004,0.029102481905538033,-0.0034174319278290847,-0.14370803767395296,0.01860481960204942,-0.192170952946615,-0.035003870739974095,-0.03846536543273068,-0.16437482826300948,0.1451209072758678,0.02583707011774828,0.0002530358191061351,0.26326130253922103,0.06115538107466193,-0.09798539813266065,-0.09660836754407831,-0.025253072703433257,-0.05123968929853624,-0.12284077314717368,0.10320199089370193,0.17529656092979196,0.031279924798888574,-0.08857313982955763,0.11903411708277228,0.23595760753605696,-0.03191964462862917,-0.03342027695007275,-0.018754592321315915,-0.0967665542731736,0.1802911575320876,0.03972465735513276,-0.10216369229362046,-0.2091091404933701,0.051798542022449656,-0.18738052341815833,-0.11478970846117248,-0.05534378735021875,0.04550774531631327,-0.019039767798598898,-0.002552451408309042,-0.025963587773361996,0.13617053364837328,-0.16753707937995926,-0.04835690217753245,0.0070686013845986,-0.05014859901780625,0.06406398791306622,0.04424318448228422,-0.11139843882753278,0.013536864269312826,-0.023967217260646476,0.0637874854620231,0.21083447045553566,0.0355581814360481,0.2414191870334791,0.08134726599226265,0.09109217629962219,-0.021238377074351215,0.06368665243645376,-0.14096079084000276,-0.13382759865125687,0.2250362615368859,0.09442426752398501,-0.03321376804744293,-0.01614266206496549,0.06534342014696569,0.012455464199804011,0.028770541319040378,0.07253836830139533,-0.2022039654314555,-0.034707428654743695,-0.11153035516949328,0.11561402621494365,0.10902231464851853,0.01812707563597508,0.1789935568590612,-0.09846091281846049,0.04347043963098207,-0.11995260829761333,0.03320087461596411,0.10287917742095304,0.0666518091252899,-0.1360824658110201,0.01570633023992431,-0.1601811086697787,0.035538803552352526,-0.200846458343264,-0.16431141729118415,-0.08486784136884858,0.025154331445541953,-0.08252682173239057,0.10180580358477853,0.06217100724006036,0.12572478189404943,0.28047512141613856,-0.10851055944730736,-0.01730384487488424,0.1294621570068874,-0.006965543450971775,0.012374548894475354,-0.00819040045677894,0.006212803951246692,-0.015849434596253518,-0.14250029507529044,-0.1932679365221256,-0.07138301525175784,0.05940844853476451,0.1162802089838325,-0.02488423609649372,-0.07679820182683855,0.09467259096289,0.03494495938703608,0.020009018431994846,-0.0822037659827414,0.019698948660272535,-0.08551996562346298,0.046531531737459914,-0.08211420433418945,0.1049287895024642,-0.005433942142739637,0.04446840052650003,0.06879310909287298,0.01350565531920994,-0.03670948885387128,0.1625640665390189,-0.14473744031568855,0.042693376400222846,0.03857964903413372,0.043723386846184355,0.014496348168409171,-0.11893498432588628,0.05666386048360629,0.04644795293627126,-0.06734064942929639,0.014953629810946842,0.05939930805433235,0.1208999246968364,0.14277755925248622,-0.09131261929994845,-0.009810187405334334,-0.07954066728155289,-0.17090094206477768,0.038191262568131365,0.04247911387451666,-0.03370106584264401,-0.1348344599136073,0.10587860444126392,0.08113327311748993,0.06392919926875015,-0.22709384858821588,-0.04845235672996996,0.028554328776520744,-0.008087865328101039,-0.14015011713917275,-0.012493911403659248,0.06093615348006525,-0.13882368590883773,0.024972548352487186,-0.014100975782414954,0.12727263819825307,-0.0701367736867655,0.0620190343178779,0.030655050265473563,-0.13710835625200488,0.0758171986629345,0.15369767413488963,0.03826999649898738,-0.01819907083483582,0.19540642640222003,0.08641128098725519,-0.06024755240570846,-0.11979851704813711,-0.041427586138764266,-0.026525302246737482,-0.05971664795180638,0.13755182219460893,0.04735360194524865,0.027402174164102934,0.07647635745498244,-0.14167207030936016,-0.16563724196751228,0.04294238585529108,-0.09206954192500913,-0.15252787010527316,-0.22543817214474535,0.04438179453335708,-0.001842148080643278,0.05963182824640667,0.0002794466971236719,0.029461298009012635,-0.1528044855672238,-0.06871692252583055,-0.05635188823633702,0.05172452634192646,-0.06678771181049069,0.06477320522090756,0.12432141431642091,0.05049775891544318,0.13579492298580695,-0.0252803781458261,-0.07690427018440314,0.1280344527435874,-0.27142379928409127,0.12344232170694831,0.13652028722418685,0.06186547816150817,0.1750979114515265,-0.11979768705987218,-0.09185582432974804,-0.08485192867042754,-0.020299994027548018,-0.04471245845141489,0.14471578308140073,0.003879018701867201,-0.1600837984226197,-0.20990079137275403,0.045344287241520696,-0.12301497817665641,0.04358913540903818,0.16125652377883126,-0.01446035328678887,0.16747926163777083,-0.020420648826976386,-0.10376655601733453,0.04462145181115938,-0.06729986482351753,-0.04240625434169897,-0.07351005911194707,0.0844526210674484,0.0509003167389801,-0.21440586056216404,0.12604989873799283,0.024424710807863646,-0.25487337377752034,0.019656422924769535,0.08808040040886017,0.0011371316786067999,-0.1662567729366422,0.08539931964812127,-0.03550681821143338,0.0818016216579477,-0.11648497358771721,0.19153883846726855,0.020801127247575425,-0.11910619273930084,0.11473181999748026,0.035558052638620545,-0.1279687617960634,0.10231932954835182,0.0070583994867920155,-0.14136618732660505,-0.04744631622302686,0.011786641038921755,0.04295163772462437,-0.043088913602370334,0.03807655755416431,0.12921457975775377,0.08715022685381595,0.03795604575182893,-0.015917899954490885,0.028668282887515724,-0.002697967681076837,-0.020384412633396756,0.20509582022467168,-0.17948049096541918,0.05525283670779496,-0.036384021607216946,-0.004981614064774446,0.0225484979245332,0.03858554350486107,0.08699891458688441,0.12101030792042021,-0.0204117897044302,0.0075804841071148215,-0.03158300659468995,-0.10180015650953436,-0.14698315098152923,0.1061816723026807,0.029532400031935326,-0.007351316011468327,0.06303345099664003,-0.23206858322355753,0.054888097687974896,0.14294780074570165,0.020013696951879753,0.06907935080999632,-0.17027290242327617,-0.0018035478187729635,-0.11158017540309216,-0.13452064344180756,-0.09258237331521099,-0.10054628206956623,-0.07796034712473347,0.008482464520213534,-0.07633552060700224,0.11754109011879388,-0.089897921992072,-0.11243859775113307,0.009927235248790642,-0.06187221132741906,-0.04594201408091381,-0.21338220372630023,-0.2605587572001235,0.16549819429295845,0.21473782221347368,-0.06357322536640611,0.03442531505436551,-0.00956629317017569,0.1293060573692349,-0.08403239163839783,0.025772705651518613,0.139116219257585,0.01623209726711544,-0.22093243833496123,-0.18091592681510862,-0.073190080560671,-0.02770243083736458,-0.26534366095273904,-0.0026812827376999334,0.04956452127582053,-0.08086833177624271,0.08758706932097049,-0.10353795046877018,0.08152448260813996,-0.1772195099039584,-0.013492695879137984,0.019820188018673756,-0.17769480219629238,-0.12778675373373902,-0.02571573096914854,0.008541888010377916,0.03184963521138081,-0.0828301143240789,0.03380713836422754,0.010432360416002581,0.07426740463300123,-0.046458832248368706,-0.1663570977952126,0.011307880790334304,0.09550503968362711,0.0032599266326491343,-0.12466061287378659,0.02279419240994791,0.007227188318271275,-0.1438295707377403,-0.012587166093446005,-0.13700899325019025,0.08159635370429796,0.16911716990267645,0.09692671263181912,0.07670688242582985,-0.20274543171400916,-0.10845574196959198,0.0066904863968210715,-0.06541936533322769,-0.008812216454973302,0.0681747747310208,0.1242025001338059,-0.055664540774357854,-0.1462305180547225,-0.14089116742868044,-0.08327793406217666,0.14517330874780005,0.13260039889275688,-0.13487720966471134,0.13911414384460102,0.007175709247666872,0.05565284780669138,0.2026369063115329,-0.04194769984910105,-0.1153168413330892,0.005119977730627176,-0.013543718081311398,0.004591048811830162,0.02747509248071489,-0.008622296335604216,0.06251893081575262,-0.15556145333845903,-0.05418343671038182,-0.1301444734005699,-0.007576943831265635,-0.05885053366699138,-0.14902939686099806,0.07029238864252944,0.11738424365538319,-0.03472490201154347,0.040140674378465,0.012974739513912726,0.07991340131470348,0.038481919211579174,0.08894243732095283,-0.14192341443086368,-0.17767458336304753,0.11743423610236102,0.18917268223141287,-0.11347369904987176,0.040068185839555036,-0.08586162323500911,0.021119203320197632,0.12774340824400932,0.01781589208289848,0.03323277617749217,0.12115523289877168,-0.19862053075155547,-0.18371968660699484,-0.007393953468058243,0.15411807668946942,0.1445754510349291,0.12666946425694392,0.17724631676761723,-0.040494339564699305,0.011183394033176391,0.024470601228158584,0.013958418143512567,-0.09871569534048626,0.08971777821748579,0.09870488260087343,0.06551503310391062,0.009147270380149548,0.16569001275577397,0.09560452995563107,-0.06650309870617384,-0.06251814822346076,-0.0061040027244929585,-0.01115402924013054,-0.05356881007521724,-0.06238941728034747,0.13695153082726305,-0.0024682643266918302,0.0395407699647389,0.024635321042414393,0.09116960742320598,0.04814748051014344,-0.022201351234540312,-0.053102880654253996,0.006323399038197786,-0.04975685030872269,0.008182004542178245,-0.00674193862670006,-0.0005375851051824715,0.019534552158368596,-0.21696196952083413,-0.007999787343217926,-0.15021780853138655,0.037354951903477936,-0.11308367961786668,-0.11038324068300819,-0.09970089166946036,0.16270968026577012,-0.07889969817443226,0.07715553725530366,-0.1294727206620716,-0.12105761637646362,0.035212063896358635,-0.0647352973419497,0.2704874288073629,0.0069086747672080845,0.0004412449804521301,0.030876270687117614,0.12438517204297612,0.11298690971252304,0.02457056295271937,0.06963830208773704,0.11433037724875023,-0.2743234757520148,-0.1475609205813961,0.07743293230927313,-0.0042156515845875285,0.15097889841195958,-0.11922553957160298,-0.02548644744152769,0.06331852533371811,-0.03165404348553386,0.07102103686366482,-0.016502372479322108,0.09015313070328168,-0.03671032385413025,-0.07354951340054171,0.027766130063343993,-0.042548087280997966,0.05062436717528782,0.014357672106292624,-0.00315902543433501,-0.0147044700132765,0.03579098850665489,0.06417622793011762,-0.09900332766694957,-0.009926329723560917,-0.011432640725223365,-0.2663209851374223,0.031140840147034304,-0.25058958624819033,-0.03403892167569434,-0.038929671379463064,-0.033614116554731725,0.02677397410819032,0.037756770778050154,0.14924017182239857,0.12771584845983872,-0.12426846275396886,-0.05537801797118942,-0.051978326190545744,0.062246306940355295,-0.029987015625625297,0.12320883736979943,-0.08996107371491746,-0.12002790938883189,-0.18361901945481107,-0.06840956238036729,0.16921079890309573,0.1819470139059183,-0.126981755055472,-0.01831517600233277,-0.09761904730816731,-0.08236550537093457,-0.03482839282492375,0.06869812444989541,0.26437689598720354,-0.08981189396491422,-0.10522313541286954,0.039009978048112855,0.0699422238145049,-0.003372876262061451,0.011177048749069378,0.09293363206526412,-0.07919670325653577,0.15585342091274135,-0.11023201431531776,-0.01405280708233777,0.07100344987852968,0.1121718817298538,-0.2746091250178084,-0.16240267330656155,0.024363444817725722,-0.06693949465967701,0.16363031952003126,-0.09731676222159992,0.21865870130113235,-0.008551554620035137,-0.06043263578874716,0.04945025820084142,0.11470196848870465,0.10083578084091219,-0.04015529756714892,-0.03192780028190858,-0.08286004719462962,0.06570259590248369,0.13871228080582057,-0.03570625276583064,0.15769181365925208,0.014833674058199416,-0.04559700493081998,-0.055951871512720276,0.030816533005392357,0.02809770451060945,-0.0650353088115617,-0.013362214623188371,0.006174394684413146,-0.08821627193691566,0.021457160955409664,0.08365105840814681,-0.008051458054159053,-0.05388425158597302,-0.1508352877964906,0.07147818051040823,0.12890502040128263,-0.045793980165766135,0.1745105796906577,0.06285112506572195,0.04626862410753246,-0.21945351968696208,0.10292645221907293,-0.2574142646065405,-0.03512703886171643,0.10612642358707612,-0.047793776531033116,-0.0687013081771221,-0.06650533616582742,0.05525935712819129,0.010915900005155816,-0.03385421784256615,-0.04874897476425343,0.09489008147246061,-0.06805287110983077,-0.12073419504544179,-0.11663216860526132,-0.04476709734376017,-0.06890953870434026,-0.08528462242724096,0.09750047746234304,0.04370897092910272,0.05287652267433608,-0.10549830465988129,0.023755047912931787,0.05393771145092783,-0.030227907032582393,0.04508845077718915,-0.12166396105660891,0.052708387733450136,-0.14336642396988317,0.14327256969422922,0.0089427950378346,0.13872732047830816,0.14269455908033643,0.0681735070624001,-0.083164627693761,-0.013996381955764825,-0.08026031347086503,0.17474999563252525,-0.2102074403294945,-0.12204932022992153,0.03921093812395592,-0.05249503687282547,0.01662339717454851,-0.04627066662092998,0.028490694501282034,0.09106308637905171,-0.11693868384605073,0.06075889312824937,-0.04133799226412823,0.039788787878508224,-0.04765582064570022,0.08092437845007991,0.1196295908222874,0.0022103582135944294,0.041459396253731316,0.24243825731021587,-0.14770090311138728,-0.024777333969065597,0.0712752225916737,0.10635406699083477,-0.002632874487121382,-0.13721873943230264,0.1932420621203902,-0.04341301605889897,-0.1448121747003931,0.12073158675397855,-0.12046868466137116,0.0013125148242829668,-0.08419979829102675,-0.24290521757495878,-0.03872937669155462,-0.08407531588387547,-0.020269657537198383,-0.046330062676029925,0.046419968409600054,-0.24366065923778982,0.11514509664365971,0.0778131621403424,-0.002523863512235226,-0.00414916636170941,-0.09089426625789271,0.05647100036283235,0.01031435631686869,0.08720665237490048,0.08836246797518904,0.09087643463561834,0.14676435568161617,0.010938201290214961,-0.08215793235570915,0.049699755111071116,-0.1405274914579407,0.048333944429428774,0.08307886268970302,0.13294728639577588,-0.006032637914529768,0.06528657094351924,-0.28224256912286133,0.06064163945553419,-0.11677677339417619,0.13142060450168505,0.021446854808935246,-0.13089335566966429,0.17325893581144444,0.08792250627899524,-0.024133553754173323,-0.1348368162125638,0.057622007973445966,0.08068340433009091,-0.08262249959965828,0.06574210380596326,-0.005281531920599052,-0.007581051552499662,0.019435486712443634,-0.053267785000481994,0.04655915130501578,-0.0835363562588733,0.027579918061960276,-0.121173954074131,0.033843163709666266,-0.044496064775210134,0.020662364490184403,-0.030839842554083886,0.1765851716078034,-0.007023947731703492,-0.010591320260014638,-0.12491632126711788,0.020537698696910956,-0.03333669534560865,-0.13893215833992523,-0.3762215985438025,-0.051881311098255535,0.027440068754941396,-0.09768652465960888,0.135099852824691,0.088921865829987,-0.026465381222464553,0.1395738865264323,-0.055604560851560826,-0.07199934604765275,-0.18982499207617523,-0.059571813151122616,-0.08302523829862947,0.12989802187118257,0.07022797785035323,-0.047059922248248155,0.014153121246011036,-0.060330949182508566,-0.17946665092638017,0.03685565920636237,-0.18850004730360456,-0.016071156058130323,0.05930889316413123,-0.004670967960304638,0.09311241028263617,0.07934578150735966,0.028425554060159338,-0.14168078739017512,0.08413324561884394,0.01964499144957788,-0.025045131078267904,0.06899030517105692,-0.08087426345692386,-0.2663615183317349,-0.040743446189885076,-0.010331087440835149,-0.07814606064140286,0.039239939813124056,-0.06349789894152531,0.12404302712345992,0.09701323341554544,-0.09466875718394341,0.027406490090369575,-0.04246469492462937,0.0943321449007246,-0.03730661636466545,-0.056819849409386274,0.01043639058069065,-0.1702819666606034,0.00948212764370062,-0.10348115970029259,0.05839134330167994,0.13883522520049443,-0.05308661124000698,-0.08977268200213429,0.04002640936734112,0.08878630464823739,-0.04625383897387483,-0.057097300505108285,0.017548390625956818,0.12204171745322959,0.09846986528541742,0.05415088295569455,-0.047971764627022795,-0.0514717943242474,0.12831780886134933,0.18822520377722882,0.10943415079946771,-0.011115715636053845,-0.018974532601897603,0.13950490536224192,0.19167521346449357,0.0317006417953939,-0.13014256628486895,-0.17435427153246202,-0.05338723416368077,-0.03041101238286463,-0.08355996523976585,0.021725517969558142,-0.03195278361765134,-0.09363747025418905,0.012448469464759568,-0.05254269863607065,-0.19049716915927206,-0.16766893660720927,0.027796327361756086,0.025184933852898096,0.15850405790408229,-0.03524263539521447,0.08780002518505192,0.03585957393819005,0.04490478793124455,0.01796946959798942,-0.24825009762847772,0.06987720775899607,0.07093725956557373,-0.04984552471211909,0.17621929004974635,-0.05422144939987026
-0.04436175976175454,-0.11213769127653112,0.21614451842398708,0.03232003672630116,0.1299669449032714,0.06622292574154548,-0.09222463738388578,0.10233129406293716,-0.10837640796552434,0.05850354116295228,-0.07292677338604996,0.053427594728042344,0.06079460134757887,-0.017742289034663624,0.06872224889408042,0.10091558460710957,-0.22189804015691805,0.07513475701691837,-0.08504189986160632,0.07327506238560476,-0.12489348400067041,-0.014528477914472995,-0.2036004647888167,0.11386245607416297,0.06449433965162218,-0.03490898342708134,0.07985314832680823,0.07943122103215637,-0.07843989568946101,0.11719139284264542,-0.09497752054129269,-0.08402815106512496,0.07877715713918265,0.01353762005867309,-0.09112197106417119,-0.10300487919789891,-0.025604673443735335,0.09972106924141262,0.13228994361755889,-0.060067826696507245,-0.059641245916259744,-0.16349296989060846,-0.13171127251060077,-0.04526432208012493,-0.12004744425215691,0.20422268969118515,-0.02720876286499449,0.13829323834817575,-0.049826030403366875,0.057215945856833886,-0.03727528499410753,0.1566500318598481,-0.07335850622441124,-0.03224849626692531,0.3163127796551671,0.036635822939453805,0.03396831427341673,-0.11110176704389625,0.22600366227993127,-0.13124277615512833,0.06455652761191503,-0.12953601033506498,-0.03281816474191406,-0.1729125272403931,-0.0040402023782966905,-0.13329207294650133,0.01972947261102323,0.02561357054538035,0.060355259874121873,-0.10600258023646275,-0.029262946013322178,-0.08659436555928639,-0.08671543818124897,0.016730865964492,-0.07436726948541314,-0.10840927942728229,-0.11621130423366775,0.14763054748684526,-0.06931753020260949,0.13594953561528575,-0.11818691642510176,-0.029761557454876755,0.09867310917582052,-0.10640966088135084,0.16928584280715062,-0.0307517037532793,0.18540365692165728,0.06640008855470789,-0.11585094683356936,-0.17962344443169465,-0.169197324508723,0.03751114715907263,0.04697602844658852,0.13557389133919615,0.0035388922259098204,-0.010584434856991658,0.12914373614139102,0.013217292950091468,0.04084042060221196,-0.03124435023224131,-0.09767449270780522,0.15787373387250314,-0.14619655768104892,0.13939459676826463,0.10471001744385855,-0.007517445878820597,-0.15129854001377582,0.06418866984529296,-0.07451703324328084,-0.036204568685383375,-0.11746606156377495,0.09325634444731429,-0.12772069518320064,0.12518078831885202,0.020652107257500607,-0.020358079897307577,0.06128893976168747,-0.19635933266356076,0.03528613738988728,-0.039334100670846237,-0.010559669858215822,-0.10111850667053877,-0.07541183244481309,0.09046935560459876,-0.014615046949384031,0.07287272429537058,-0.10051352398339558,0.0640281486383807,-0.061729821394336484,-0.13359655005641255,0.03482031850434037,0.0025676411766894624,-0.08402767445046486,0.0729653647600109,0.02365763489885836,-0.10936733899576526,-0.04126883048408787,0.04102263492156566,-0.0006687650846739048,0.12232252115362563,-0.01748185092878475,0.09204859754263907,-0.07426842214182149,-0.057152337103782105,-0.010430452287232196,-0.0993285580851523,0.15341110289645155,0.05957896906727788,0.0756733463690919,-0.017257552399723968,0.02722565912683001,-0.14029167830931463,0.18531062910104695,-0.09837573847701195,0.07404567216128062,0.04591195968943296,-0.07922126330598427,-0.12595034491084284,-0.08599898895985142,-0.14583896157660373,-0.012845955508528975,0.10909960560503643,0.0035557495617580233,-0.04767710788951835,0.048433126038088636,0.1058386659771055,0.04005029532008154,-0.029038430692837576,-0.35194382526903395,-0.04121371580838341,-0.034493446400496224,0.15502978927993782,-0.02137600071299643,0.15959976348966531,0.15177686163159224,0.03902665182471929,0.0755787772481048,-0.12394108496916854,0.07449706797903508,0.07359441995635545,0.08314332763939639,0.02031874484596799,-0.09500053832514627,0.04347008063068253,-0.020352353353738195,0.03188796301636979,-0.029660363573290383,0.08382143151913461,0.06280454662302641,-0.04490638671894845,-0.16519289607750204,-0.060246033982814466,0.07626201003216536,0.20439505161397503,-0.056388078854540405,-0.03298275389956804,-0.06259428609933401,-0.31224723758872264,0.1442570153814526,0.08408114987458602,-0.029688789858904885,-0.13038809785442365,0.06818579231905199,0.031474898507496865,-0.03868780369375887,-0.040029381593505574,0.12670058891739974,0.10880793697886436,0.20543302953484788,-0.02339177554149299,0.053705644252096396,0.07306572832403421,0.1435825185530162,-0.057875121381362,-0.05768415354085277,0.1378188067305792,0.05152512919965686,-0.18635133086385525,-0.01895732920207396,-0.17247576965713438,0.09975694269343294,0.025046776606351545,0.05064226826400962,-0.00211729634181874,0.08216865355956231,-0.09231576310390753,0.0690415178803274,-0.03255938624795298,-0.054698398720114116,-0.015467812725827826,-0.15760962627209626,0.008900567952146192,-0.18846996567190086,-0.17981486916994044,0.06469948098453825,-0.09274990242850599,0.08142379178879572,-0.013596084233011344,0.14573253803873512,-0.020781475464462764,-0.007111599655574376,0.032941159177016524,0.00599746578006328,0.06883268759430719,-0.029891513903053307,-0.016169088791024685,0.017468609480005774,0.0718567640375547,0.03358170265129468,0.046460923918298175,-0.06555387488650859,0.08581359265567388,-0.06423366656258375,-0.0637685395628941,-0.0031490160569544986,0.03839280895627818,-0.016872506929288027,-0.008537227693238718,-0.06125651370231747,0.02470931447625889,-0.05711941294372687,-0.006235954955560627,0.016377682736978323,-0.016842742667577706,-0.011785003189276994,-0.0772731561771353,0.143032708731302,-0.09449219310608516,-0.09998771843576941,0.10948890287847375,0.010033774441167929,-0.057930321600327045,-0.06649654712328697,0.04735997228039225,-0.0065673861968770925,-0.09944191723406592,0.019060633416441732,0.03383896459754133,-0.24490647557835962,0.09044312510562144,-0.2071015325904896,-0.03765386250168162,0.032648286278357884,-0.02158953392073412,0.0907887044069079,0.14230157077946784,0.057013816922930366,0.023905448956636016,-0.08538681546463318,-0.07132051962241383,0.10909953636205749,-0.13188673049168065,0.15010685351064257,0.17150155776828643,0.05092447551997677,-0.1496146856149174,-0.15626672413280993,0.07587247319162614,0.09184748914168721,-0.12830745158947499,0.014538939921869755,-0.0865646116263388,0.08304030029035371,-0.04890339031178436,0.10194041198929232,-0.09352293526187572,-0.07990034717611215,-0.022000947457307823,-0.009314083740110144,0.11846398402470326,-0.1727307447668895,0.07352415708083833,-0.033611099386620984,0.034470944791681724,0.011511057412565057,-0.08102747914257244,0.055175184852667716,0.06273050614556476,-0.07021669540337726,0.04374108077809508,0.04672999737041789,0.06880602962052369,-0.00790010901841135,-0.05155175971103931,0.04418133352182283,0.08146976719585056,-0.0856138975500605,0.0848950135383966,0.14696474661515288,-0.037941415529836556,-0.07744938515727885,0.03261695164380705,0.08278692506584097,-0.09337461741846201,0.16070166417101853,-0.16801661508150037,0.12260035429045422,0.002689918414511878,-0.05561145170899182,-0.033224671377230446,0.14192342577106962,-0.01733258620456646,0.10014112289840543,0.021909879572057075,0.019561370232870735,0.04163922630516115,-0.0011556346175014575,-0.034500453114222084,0.0375499888813446,0.05132820388067702,0.099609745033516,0.11492327383679009,0.0049092847588262534,0.1080010476450009,-0.10047454632602554,-0.1611377165060527,-0.003386465567510807,-0.055142433536796834,-0.10005023737362384,-0.040638908352640675,-0.04548367291704322,0.0769075815820191,-0.06662109322049257,0.131515953116544,0.02006302523891514,-0.061014294462385155,-0.041439576836901935,0.09711705612682658,-0.0053696761584169925,-0.05684642113752023,0.016226858520767367,0.05379176993630668,0.03564752210227621,0.21592447751421254,0.122558252511834,-0.07308579665076977,-0.09436509993649789,0.06220562560782712,0.04654704671146717,-0.10794451755880184,0.026996801810366428,-0.02772116977454679,0.10125366930635288,-0.04311017638029933,-0.03889483274089718,0.12341497919211007,0.04171870505751747,0.006190798315237603,0.0007806966149450888,0.044209367929535844,0.14226329843177812,0.05439699715363248,0.06593312235397246,-0.3015758035241175,-0.07586676802635411,0.07505003616639587,0.10020227165002082,0.13461637452890324,0.05472270075220614,0.00289309403775888,0.026858227106863655,0.0991810560891246,0.10138410975833578,-0.14493636565966075,0.08752824969992258,-0.02238555344483631,-0.11915818270922446,0.01584147034528822,-0.0497288794952778,-0.01955753425457405,0.0908094185176599,0.08754822875806408,0.18823521433567728,-0.008484513468846764,0.05498407761966337,0.10869188516742607,0.005768451496636046,-0.06037442969943379,0.11586364876309299,-0.048415609529782244,0.25454079171120925,0.08718823103822525,-0.0800374236107535,-0.028437473010381877,-0.010822644175513915,0.03676937080549408,-0.20052112810855302,-0.12689803007124612,-0.045815714510409195,0.01878171126378034,0.13807584020761954,0.04386513641902193,-0.1387794600085075,0.13765787197955567,0.09271671426425715,0.09361567013584379,-0.05827870335312853,-0.00880301255863792,-0.06580854548302777,-0.06859510611096142,-0.15316851713813162,0.02104072265633156,0.20442702070699462,0.0950255988934192,-0.015831059157892454,0.126588918497172,0.10539010381748995,-0.021973560086924318,0.08710908542547263,-0.12330637257367941,0.10267932133762062,0.1956284379982492,-0.06252594692989043,-0.0019405954660301193,-0.11655718757056871,0.01892728744432748,0.08112471008008502,0.05941078992919285,-0.04979397162458319,-0.08191758955901293,0.0438016943244333,-0.03438081923623319,0.06263992252310395,-0.13389751572771633,-0.07454630014577839,-0.09103127994464927,0.0058608297556667025,0.014610119486387555,0.14214978117215113,-0.014423891193112338,0.04103348941676061,-0.03126081987021049,-0.07033240397386481,0.06535244313492027,0.18351647801272758,-0.0799769122766453,0.03427723598176143,-0.14850615394611044,0.015022029081207842,-0.1025142365325919,-0.07506337812882229,-0.053595325735694976,0.014949295251141219,0.05959133138471454,0.13496766434632976,-0.016141751182916247,0.05774036929321219,-0.10313653923796279,0.06917610644767097,0.07236019166801662,-0.11576500089094129,0.06387720592972886,-0.04515282443053559,0.01981518203848313,0.07868673863928942,0.03153624337208118,-0.12632339926311828,0.15829472949956006,0.010772173182820807,-0.006959457809785315,0.14586183948824746,-0.03902839751319899,0.13780896362477954,-0.07003006652102116,0.045989748076430186,-0.004590454947582579,-0.0680099509961546,-0.01625311016822453,-0.05149936483522027,-0.06787898546570557,0.0006553179412565321,-0.08727854867638732,-0.026345787513746007,0.09988534081228252,-0.08854829108768383,0.20609676551776107,0.13856781289336564,-0.07512583184625726,-0.03963400539499071,0.25145111555653704,-0.0010904822782575568,-0.031830738608699435,-0.02609467095578833,0.13862896876480016,0.08213308456908491,-0.09458771808786472,-0.08096060055817406,-0.2160228942570928,0.16875239846879952,0.02706393727672032,-0.0623797052298855,0.10960144247159127,0.040611496364424904,0.07477417650799963,-0.014404449918347535,-0.10469195006939631,0.052979778158285855,0.08131603074182164,-0.043590866738455206,0.10718820732136143,-0.10960947317277381,-0.05259772314649261,0.04062378725170243,0.10995060509158579,-0.03597397798903441,-0.10425562503167943,0.01573056465584485,-0.0376719288893799,0.07904907186080241,0.027414849680352904,0.19902605268835927,0.16447956465118202,-0.03087870719098841,-0.13210013598213524,-0.20701302404499786,-0.11504606565071095,-0.018503482372750384,-0.064373638135781,-0.056444473716657985,-0.014944062941894019,-0.044894978687804205,-0.13325439306348946,-0.06425239297926606,0.0665568978654561,-0.033967818704159165,0.03985749741796965,-0.05239977063451449,0.05289932942396519,0.16107361792932506,0.15629395457626857,-0.02442393865247518,0.05535947979512606,0.027794701345908054,-0.02811755930313263,0.10453249500836666,-0.14169928568682308,-0.06532378966390154,-0.1689944455439054,0.2535108569039263,-0.17205747502009688,0.024496639385881647,0.027395932972485156,0.008737215878147927,-0.01955449615174064,-0.21171781630909023,0.030591983717521233,-0.12015612614794875,0.11140874814901279,-0.10602183903629572,0.05509534965392935,-0.05142881295765777,-0.027914187797798265,0.08626655067351856,-0.030067736729340763,-0.07344489828217343,0.2795183800745837,0.021796155543916215,-0.06134761839753949,-0.2660182338697902,0.058118895263808125,-0.10151330763327429,0.14088738407333257,-0.02862275929538713,0.03848629071282015,-0.10433079092840869,0.02640603471358842,-0.043760436992391155,0.08488799700502477,-0.12892811283808556,0.009629061398974216,-0.06543030220311448,-0.16201734430435075,0.18760389837605024,0.1522510771318265,-0.043657381624470186,-0.01590778697792098,0.02602838035721925,0.08128590679357144,-0.04510129777378734,0.07629752563461717,0.12001724065588043,-0.19864723412090726,0.16392454202791518,-0.08549733546951549,-0.10181599876771373,-0.018054521045337103,-0.11242444538332688,0.2191203914772197,0.060659661797150814,0.14358006801674275,-0.0020952316041111616,0.059928919839299266,0.053064137090442956,-0.15426083641481048,-0.08106561773717308,0.02016104517999361,-0.12250791993284874,0.16740078552652518,-0.0891066699509211,0.08251658353828664,0.21274321596032875,0.2320696799706061,0.05884683244044567,-0.015693880133253613,-0.048337339449750126,-0.04154582679392592,0.055512246931662845,0.09093965944987599,-0.06313379207229593,-0.12197836708512069,0.11943096049173503,0.03385495956001578,0.05665439320532061,-0.058148666726836135,-0.09209062994938304,-0.047004714946972254,0.15012866328073243,-0.029703965087175363,0.12127822135461691,0.04036198514610685,-0.030511720980451126,-0.015610900346546426,0.06444779359993098,-0.03037566742077489,-0.062204055924309526,0.06490122716462499,-0.24150552433887681,0.04045874180009282,0.08441617928186786,0.09372167720537324,-0.07774268720936006,-0.05519054233732476,-0.15607631541826017,-0.14252314259129306,0.08781217745274414,0.07022359591735076,0.09068564193377827,-0.0023710464659688333,0.07213056173865671,0.042722075332896875,-0.08830068909075199,0.003922232283448372,0.06436289969075755,-0.09251450671447438,0.012345597375190247,0.040266576967774914,-0.14916664000225852,0.09906613989112856,-0.15145533009561526,-0.20752452156095497,0.02408148625424693,-0.24156486110037767,0.10277006952109227,-0.11916978503797465,0.07150723064926588,0.16108206409629003,0.10989662799989847,-0.11023519890817615,0.0660981471908221,-0.0568265236470364,0.05726439885410187,0.016264835416901945,-0.17990483169828017,-0.17333224455863447,-0.015340532823310769,0.038513023688896184,-0.06928532160274879,-0.09145858726462296,-0.18834600920292863,0.005136797561843603,-0.22934613673528587,-0.06337936483653579,0.25895898329586386,-0.19260919499296625,0.033294450905595956,-0.015911476779149968,-0.024050942987750727,-0.09501462752356078,0.11052011053026133,-0.12320282683350876,0.03987915621400502,-0.07305467812506335,0.12645635201077648,-0.08604505486566266,-0.15171474190299977,-0.18637152062140566,0.007012279950037459,0.1571248530456879,-0.1121178636143103,0.04164756480928806,-0.0522973470122892,0.16022901471649398,-0.11784071945653184,-0.15444407961562243,0.026465914737675317,-0.0011232416522581697,0.19133064346228934,-0.07246308523664624,-0.1833641743324306,-0.03278860135455136,-0.009610936999184574,0.2067682249948562,0.06969377502604783,0.1006680692495364,-0.056600992694174804,-0.015379934170805333,0.011990236240215335,-0.22858771774459782,0.05514465549400667,-0.03425759782039284,0.1303280072501683,0.0036942578366384498,0.08401726597496034,-0.012985710615187475,-0.12073196410042764,0.24071634228163563,0.01964754382045033,0.09569597368839929,-0.10231788476474378,-0.12353415593576925,0.08567050508006235,0.1596551122970916,0.005810207628699759,-0.21024542946710573,0.021696443164754844,-0.15451187255998777,0.15309245724114862,-0.07029553233326279,-0.04845658519465514,-0.03475091862436796,-0.03672532072645588,-0.03367767142950994,0.03576480757219908,0.14626256806241958,-0.10360713261179072,0.1245260869945158,-0.030456782946832624,-0.042881270712689185,0.01173840514120789,0.12071345920781351,-0.13747781743110876,0.03842804519311754,-0.010467647598875163,-0.030009286696320237,0.1373128073957417,0.05489953080391269,0.29897158963986276,-2.5241814036608718e-05,-0.02740830903975144,-0.032024534768762276,0.14508839857924558,0.10924994222981543,-0.06775992047953955,0.1558740155733046,-0.1182312128148374,0.08246770530650932,0.06587646995881039,0.08802425142636791,0.024927891862274357,-0.02592805931428965,-0.05985031238431511,-0.11033877447590963,-0.09670617024352546,0.06650382256499228,0.13112713470658874,0.09479712602589882,0.059830097497511496,-0.13672624209049986,0.0806301639940981,0.053436303206671365,-0.06535357727172685,-0.0578296278042602,0.038862756762469655,0.08067454948810458,0.14720331848706322,-0.09612156664610882,-0.06072182633727524,0.20479541717181815,-0.09066381603050441,0.06650052168081466,-0.022214062418889957,0.027775221403607088,-0.05991480074547853,-0.05754185058520026,0.010844231177625903,0.033878509899552996,0.05266197701225744,0.09793169506257164,-0.12299431341638044,-0.07489372052182848,-0.012228933839183416,-0.05996024595772057,0.10320950044022437,-0.03585461811667748,-0.1029513378393699,0.07790069005009773,0.07593239728394179,0.015686650754854033,-0.13161343375096735,-0.13140191440002533,0.015554712801087753,0.09247344285608557,0.0009469767602472344,0.019496521043738987,-0.20116945151271712,-0.030237409278359113,-0.0852096557470789,0.027496113021643478,-0.05452904871748124,-0.12170473922590791,0.14841031307551092,0.08558185602001407,0.026233545673499687,-0.11209561731934055,0.015317932963279206,-0.0006089491668711471,-0.1913954287770562,0.1720061098149579,-0.014836641112713595,0.12344326005415632,-0.016349005507488534,0.08111317375326567,-0.20352074261589417,0.1656126571529956,-0.07199862958896455,0.034155236561831975,-0.01578543070696283,-0.07279379798802803,0.037937832334637565,-0.060265783988090384,-0.0619026107849219,0.11415771763556744,-0.06578458091736694,0.1703313318005698,-0.07016839182129199,-0.028049564975675068,0.2187328190885517,-0.0038611664011384324,0.29989564368823635,0.0342363419014522,-0.18883576789327938,0.01825518332108897,-0.07167235868092961,0.10789472042755521,0.04143973924280814,-0.0568130139792903,-0.0644681798270187,-0.07232265599684638,-0.03976786664543913,0.0769725876861288,0.1089290976110454,0.05591879399621781,0.05690860825938369,-0.030500825461167808,-0.07599741814945393,-0.08083158495644882,-0.09528828776842758,-0.0014125752714330645,-0.03510569351644995,-0.06862414746061633,0.05686869316330795,-0.13053333625285943,0.0998244753547014,-0.04433216535697921,0.08319741763429507,0.05160931876299651,-0.1280988967827696,-0.07605149295610197,0.09799278256224016,0.11073998599425253,0.042834664869331636,0.24093047956096322,-0.06306210843630707,-0.04327684123753305,-0.013053718140023554,-0.0006147241879075429,-0.14303028399078768,0.11898073136882817,-0.025643052313946486,0.035788070572825396,-0.12250347556569317,-0.11076865604519603,0.1624916193756535,-0.030605338060855265,0.03206999119277605,0.012982415527493128,-0.19926461076851837,0.10978809071911125,-0.045617497677418364,0.1328105736647054,-0.001756653594438635,-0.032615186343791534,-0.3417771900912015,0.03965977941418655,0.03416992919598862,0.05574796367995166,0.02171465823386659,-0.14495374218627413,0.1327640483090423,0.10959152376334343,-0.15513961803445575,0.005153588763689626,-0.04408457419726136,-0.04668671144056439,-0.0010897669956971444,-0.055341527487871106,-0.15374518341716112,-0.07785301283066559,-0.015434323214637849,0.049920300262895755,-0.07246036050796863,-0.12059778851813517,-0.09061206391104529,-0.07869263043817304,-0.04170210817470576,-0.11504962911199333,0.039422422386616196,0.11939722892285042,-0.08295102122872461,-0.020503274250262004,0.06129630750414161,0.015508832248467393,-0.12237625917923914,0.03784785802787084,0.09186702850539569,-0.008226869358498852,0.0011632896224598526,-0.051662624180701416,0.00604246286822441,0.014183319017660224,-0.1201755203411727,-0.10752711817373434,0.03148270044323442,-0.012845350658360745,0.012042709361030017,0.01763722917414095,-0.06365290685059312,0.14768898936647853,-0.010876793142698182,0.09482018795803293,0.08408203267207565,0.16064665673856401,-0.0037971871141286224,-0.0961473907302056,0.04467856328410355,-0.024452513595198403,-0.1894800237480943,-0.17991987353989744,0.08397973301711956,0.004441187276802787,-0.07177926400979828,-0.0070765425600809355,0.09576115349841456,-0.0409386113154712,0.06581455694475498,-0.004523038155723372,-0.054912028829864803,0.008347891768148864,0.0688417819688678,0.09923468400346852,0.013635702274839137,0.10828174954325454,0.08568205147122315,-0.1274850611662903,0.03912687252568883,-0.06294019342977542,0.10726989761749427,0.11093865042090181,-0.2103131520547415,0.04538685774531005,0.08716654188293668,-0.044711091690802514,0.13132360907141538,0.11236756293601713,0.03915899146017132,-0.15647093053399613,0.07031589465470782,-0.10143875843374633,-0.0789391620670613,-0.01335067105835665,0.08984512264432463,0.027858308910508674,0.01602526050255525,0.030290735496645627
-0.10048746941139332,-0.06254941825817284,0.0596064548033042,-0.13077702773210328,0.11856237420233971,0.06285672034186077,0.0258285729735094,0.08488731451980167,-0.14143037917070564,-0.04854079165125992,-0.05036384051422569,-0.1026713833768092,0.022989320762169526,0.031246345725518973,0.10777161597662588,0.0001360096280365379,-0.003406747440821945,-0.1986349059812234,-0.17342193960035535,-0.1703527298261323,-0.09088227135312836,0.16663252056336436,0.12623239985355458,0.11255053470328989,-0.1489139281643348,0.04949759235321818,0.009639349440716424,0.08910875229059027,0.15487280302900752,-0.18679607384417526,0.04501408031658546,-0.031567390312808176,-0.13403203262100974,-0.024540804735668997,0.07052207957800188,0.06509092419698889,0.21228858913368795,0.17698096812913222,0.029487284019999647,0.12696984111051973,-0.1111935394713667,-0.0778549730776986,-0.13812280194817722,-0.0011671606149203468,0.007808020826719161,0.03472144505058127,0.028806384485350195,-0.032290777032761266,0.07270943887106035,0.10219659361141264,0.0466589092320305,-0.030575787113699286,-0.07804885847695571,0.11184786729808131,0.1389626963178553,0.11597715554305464,-0.08634755135725398,0.024367329069332574,-0.014450578788408316,0.09304083966872828,0.07086710728120768,-0.031241963922513397,0.10477595714843468,0.08265739656813266,0.024632982050898214,-0.015380573725499886,0.08945276464836875,-0.0542707940814268,-0.025381814194905913,-0.010741417846233304,0.20240482005496072,0.06631260785968987,0.021382841806748133,0.03749084054279508,0.09767040924082561,-0.19780401304111714,-0.08189110943985858,0.006645698961528981,-0.04336546425274771,-0.08609566900226984,0.012668432992653321,0.024448779511325226,-0.06652876228854179,-0.05850000880623308,-0.03969761519171586,-0.10025999355372923,-0.042760318367956254,0.09917180802414767,-0.06964810898810585,-0.11442999509674451,0.0332955691132406,0.04212125368511898,-0.08297992122088552,0.012200732767797512,0.0035580859894647314,0.013832420689186182,-0.09820544229133285,-0.21866903614653266,-0.11668181911105367,0.03139050983413154,0.10821194839483676,0.022976576753492864,0.047036512269881446,0.019751279994464195,-0.04349684179336599,0.017132704604486803,-0.02087991412733669,-0.0020716423873632867,-0.0032974075524483536,0.046584874988794656,-0.12218850946116618,-0.11853517325033723,0.13607333847007644,-0.054693133131463345,-0.17863004573088034,0.040390665508805164,0.073467358186435,-0.013368750875763377,-0.08829649017682178,-0.12913908928441867,0.12045651576714107,-0.11673854329783442,0.04964318342260737,-0.1672878619147363,-0.016415193609845325,0.04338337711411644,0.04098359030967565,-0.09065940860997919,0.03527423462093187,0.025841418238016226,-0.05092579138597479,0.05054962577430437,-0.01891325649248961,-0.05517625750108528,0.06956539843131629,-0.1093486602224011,0.16586320754654585,-0.1944191255826635,-0.05214156596385182,-0.09521581628464768,-0.03524484903809192,-0.044401148716110554,-0.09756184765305903,0.11257078705327998,-0.0058726825308918025,-0.20617601250153686,-0.0565177525232614,-0.08563462232436547,0.1111702799525667,-0.05289744478834949,-0.057591764096106536,-0.007425427375081625,0.021566176072873044,0.03192694018329282,-0.15175650850670153,-0.0622362222735011,-0.047173887629397934,-0.027841558368603254,-0.08779031044958019,0.20588500135690757,0.013770375706745,-0.06126509255939607,0.0023208025623968737,0.06163206974802825,-0.0002457215530099295,0.07840518812019417,0.1446335971183653,0.09854453163057558,0.019697869432204036,-0.1070636839035315,0.06719454786165519,0.08796780388800754,-0.021366255279658613,0.08651825596493871,0.04718090082064079,-0.055199033885945,0.0698227290467006,-0.17832841564998372,0.05248111050687886,-0.023159400422156223,0.0704736521884622,0.10136668012143164,-0.20426226947046297,0.09812200328164473,0.10960640442634129,0.11343744888423817,0.09498422555455345,-0.09225074824919365,0.09060153482099921,0.1589625903916656,0.005680621143996974,-0.09823489573746319,0.04529694074901869,-0.13775570547141633,0.1566063534581002,0.07587175917838908,0.028699617965282746,0.050663260176905,0.04915444870987988,0.1088097031468844,-0.004577961444501639,-0.18501276321009422,-0.2421869568667315,-0.07225002630375356,0.08485165677038588,0.07895845787980983,-0.005993092355581641,-0.015086585905261435,-0.09264220386801318,0.15277203189929492,0.14660308654107346,-0.06113098053117231,0.039357565909807955,-0.12599688800040237,-0.08955117285163967,-0.05528694240321479,-0.08136809093053723,-0.03324197161826746,0.16774720914574004,-0.028554778403042325,0.0015517607714841926,-0.011646244293622428,0.0431319131261337,-0.01722013794200047,0.055388068842997434,-0.005053982503671721,-0.026313085004341357,0.007444836815806421,0.04376938948287496,-0.005954059097533534,-0.05275014952455844,-0.06281040174404086,-0.0807396499795878,-0.13166760097477836,-0.18526559389625766,0.025053133134962515,0.07885877649320275,0.1293357022187297,-0.02117573121876273,0.07344417616841598,0.10509787503604215,-0.04030271365784688,-0.030280814698191976,-0.09124181184837671,0.11891334160855864,0.15007271192443938,0.0808670357362445,0.13097699198427534,0.13987876178652517,-0.0897327594331334,-0.08299211691837825,-0.1184515812430664,0.12554552478335257,0.09188939506144073,-0.03797334446210801,0.14443297374624556,0.022913311955650478,0.11116389242214123,-0.10148999200952204,-0.10842854250872223,0.19565321521068313,0.23689228774762044,-0.027214257486016757,0.03497555162455093,0.09189618984955093,-0.006358174449739199,-0.027147607583198667,-0.18440249391354208,0.020474790119601037,0.02353728934629598,0.04584764941441436,-0.010390747417931577,0.06003331795578978,0.12827124301194764,-0.09339625113771924,-0.09088739334606152,-0.09552639406499516,-0.0784550752530663,-0.03370901767023919,-0.10551614132265524,-0.1580851681983923,0.1436790704088181,-0.09964356145340664,0.027991343522291632,0.09689620757067832,0.09881907142462386,0.1685010790030899,0.026751505464172896,-0.007046809497112864,0.11984459940852353,-0.2062327131987819,0.026795194261534993,-0.028854754816071308,0.0076517957328165985,-0.02646227921879385,-0.018838232879976734,-0.07782733940468858,-0.06095411319321785,-0.1851760352618489,0.07204010182371519,0.05216046751509998,-0.039625696887903634,-0.09104157751149485,0.09810721066939891,-0.06980657823227213,0.1485064171059324,0.059727268752770374,0.0008179836259077166,-0.10134149681742834,0.154240591669827,-0.07821802677912833,0.045578661326622,0.026434795805689165,-0.0321154917032504,-0.03698449011299375,-0.1546146084102654,0.01616433679072008,0.0827299387914521,-0.006784495165854634,-0.11384026356656514,0.0709618902543442,-0.04174745198614794,0.09745169965115395,-0.04209450650076236,0.09122007248215762,-0.07359767519088592,-0.00973997667774749,-0.1280830786650038,0.026282915460862092,-0.0761215407354225,0.04673256269404828,-0.016868601043513065,-0.01333082601089456,-0.043926491171400205,0.12050547951830044,0.12252258791365375,0.06623832136590421,0.11002756909710684,-0.06550834998531305,-0.1037381700723043,0.048330673398532455,-0.09009850782704242,-0.2056648023339322,-0.00889692782490106,0.0405597115126328,-0.12055393309518955,-0.12373100549743378,-0.06950817565807599,0.05849281992722019,-0.07274461827090214,-0.1754444212741112,0.022278720645333826,0.04639003305891223,-0.11905332719874223,-0.08160309988606473,-0.0006596881607587342,-0.10979005960052726,0.01017320511143396,-0.059902473356308994,-0.201978426352884,0.042748821879427676,0.18329988999863023,0.09294882595928423,0.13839545636243827,-0.04331256793398403,0.09358896149331809,-0.07019549360086703,0.15387823439741913,-0.10960380330202278,-0.06876902504464474,-0.11782643288632372,-0.004552901155994614,0.13710853592755246,-0.12979247373837072,0.025097509237987668,-0.08032205527371979,-0.04000129876372635,-0.08105333235200621,0.12496534176929024,0.030844978912799935,-0.020282851683044296,-0.008662150178336865,-0.015046713599104929,-0.09527890518302713,-0.08091831452694684,-0.07322088886833673,-0.09144116644634355,0.06118561777092848,0.03225898811379475,-0.03768077962756547,0.05412139782750847,0.050739383345089366,-0.06370338390753752,-0.03332071681598639,0.22683352284899722,0.055537529461064224,-0.06547668584589825,-0.00505973539508996,-0.0065587165976694764,-0.1571512893943808,-0.039898987285146376,0.08228358592261627,-0.06156150497113128,0.019752173264510287,-0.007547664803388808,0.050405062444517555,-0.17419978066821876,-0.04762720319924586,-0.04906641704455057,-0.07412681557114784,0.02788989239418296,-0.0781105307423889,-0.12421275172055526,-0.03844605408538557,-0.1012055501683003,-0.042745344116781256,0.005939064733599061,0.08343748863148508,-0.10442432803188165,-0.09776411787960398,0.10960010675489516,0.024202082952148433,0.15924245348811175,-0.11880338302254546,0.042786974318774616,-0.08827902481209722,0.05116083333927521,0.07751009418004692,-0.0345125933954145,-0.031829647115125884,-0.18194322898307097,-0.03591779410010467,-0.15053871042508143,0.08877804282213604,0.005422580989681376,-0.08787108196483913,0.18619008339384863,0.02984212369858383,-0.10650155747099764,0.07283137179013441,0.13956496995818643,0.07450155289644642,0.09278076281433484,-0.00363580724513381,0.026905042713874498,-0.043600004693196096,-0.07512442229871422,-0.1330770143532826,-0.04684530827785365,-0.012020211088711659,0.06215916488560705,-0.0018265220704610844,-0.10421358698752066,-0.04134073543833684,-0.12805482348513314,0.00836549934323583,-0.06265985443602881,0.05073755683724593,-0.1261574147211055,-0.0580352439844627,-0.02405956164546604,-0.013657673242823149,-0.05094074412779966,0.005095411631833114,-0.0016192842365231868,0.022126585905059053,0.018617562949406512,0.08638244773512664,0.02855403854704952,0.18566090232407148,0.07779672708280855,-0.004555009863121458,0.09055784214543691,-0.012160541004592877,0.03679179690837174,0.03543939077592355,0.02344813591190316,0.06937926518537782,-0.018545955228580973,-0.009016254926470865,0.06281276093999281,-0.0323801094576496,0.10030310081148244,0.05328952126046231,0.04529777840125146,-0.023991342873411356,0.023547065196406168,0.11677121329671715,0.06486574894737888,-0.17808081514012958,0.06471054454558849,0.049774807646617535,0.21657315264323085,0.11275514298578442,-0.2163347252845293,-0.07281946154394177,-0.22482568104095002,-0.04135055046269796,-0.06953427239827818,0.12016217187243682,-0.22162699860572926,0.015888083332683527,0.12613460916019484,0.09776219416094802,-0.005987410066906559,-0.05979731209071116,0.06253221897925952,0.0012817004264128557,0.08692077535895569,0.07633092846375265,-0.2228394939867769,-0.11683430019244957,-0.08701136956019251,-0.07840655822311739,0.072665940351451,-0.002021838099776489,-0.1359615131573562,-0.15886009464738485,0.15614642203695248,-0.0018259770371648783,-0.08966906391085017,0.10759773860293032,0.011485770802937882,0.026808111649058535,0.02617086279893614,0.11920640179713429,-0.034906026238133187,-0.006231921307643497,-0.05138675361429377,-0.016891185580075498,-0.08591079064003261,-0.03673344222406635,-0.0016692086380578801,0.049005926604005975,-0.10153933360217478,0.06276790376567505,-0.1486013890360804,0.06601763271320749,0.018375613217346768,0.1766852707591268,-0.03227201432596641,0.08043091665209562,-0.09607643441002389,-0.14386822291343748,0.20182041055244015,-0.037599977886648935,0.04236748688165897,-0.052278232719635644,0.037228797086860096,-0.06797889267193603,-0.13329690284347992,0.07077071516519318,-0.007643472153488422,0.20086501213829194,-0.013978148006239286,-0.021028884543182594,0.015853262576072235,-0.011979132990787796,-0.03175841330463738,0.012408065426781837,-0.000510763128133046,0.01744084662238939,0.05252348601099442,-0.05710588224650981,-0.0054012631008248215,-0.016156627111608445,-0.06028393486306094,-0.16896506934638064,0.1172214529044763,-0.06726210269301887,0.0043996817365049,0.01676943933088265,-0.11712158497394161,-0.026745300700459784,0.026500963244199347,0.13818867743357455,-0.09658489847315989,-0.015770004735218907,0.0376460829844236,-0.0872806561234599,-0.14105811369962531,0.0038206264294547224,0.025048391825979864,-0.021322310969391925,0.10738495359220719,-0.037218609303766914,0.018455508915260085,0.00518660421004527,0.1676722955053086,0.032187870704027774,-0.058374328981793885,-0.059163587535702056,0.11407705790269873,-0.058814286358779035,0.121305587848569,-0.2100767258935666,-0.04395233762079801,0.13025713398120078,-0.12568280124318446,-0.05977871685440086,-0.058262427989962895,-0.11049149647702014,-0.07582250437177841,0.07613082694223137,0.06110772293291274,0.015647293206690883,-0.07049394903233926,-0.029220346035574038,-0.02310950223077986,0.019609070480827245,-0.0876217840779203,0.035515470147068774,-0.07406582637379655,0.014431017468682687,0.036032373843960346,0.14139882697656891,0.10062837239929827,0.12949114334198913,-0.049199532213744165,-0.03767977851981606,-0.04091805562087065,-0.13191974557901956,0.08849512904310751,-0.10387092598705497,-0.21128939499966912,0.009348698430960202,-0.16346278184640214,-0.055258489742885275,0.12013215299430798,-0.09044666481280068,-0.11441274834229379,0.028297336946985885,-0.060221878483247206,0.08654959512240798,0.14290555771031893,0.14381163418868603,0.15951146735059543,-0.13687731059847177,0.06821242643179658,-0.059912746753745826,-0.26256341758633944,0.046011080415218834,-0.10045111982355096,0.07223715083975796,0.13607722053154944,-0.11831349464981729,0.034198033109441604,0.033919873117913536,-0.017819418914687465,-0.035667311350330765,-0.012008505097704902,0.0509747492976455,-0.13352761497547314,0.11428967341653844,0.05304502492492708,0.027195278219049573,0.029096019091194476,0.05139286860543373,-0.208813784147127,0.042436546798818954,0.08528274091724819,0.01896877513781199,-0.0883196685324625,-0.11584356634287599,-0.031333601313034816,0.06374118522264223,-0.1491153140916677,-0.07700421623104627,-0.1303607889975244,-0.0401084115684981,0.028665567403684426,0.006654868666771096,0.01741827315019205,-0.12554927775676938,-0.09460299149652726,-0.04853476540783375,0.03968476343939315,-0.1191565304483264,-0.015766023650795997,0.025733181169863558,0.03396617811794071,-0.16767128640918721,0.02761352109881929,-0.08241441101832277,0.04732395592849114,-0.005939752407445596,0.25066544217936265,0.04356389309459428,0.11472622804879047,-0.1431841618403435,0.10780882596376382,0.08138008912928077,0.0333962384950647,0.0816253627824821,-0.03950591533008263,0.09274802307131778,-0.13153408126318653,0.06126893954681447,-0.3181840075815773,0.0935888926323626,-0.06070095171403885,0.03922547606549014,0.05320897281187056,-0.0021590447003351763,-0.1682212749999137,0.14950857304287954,-0.11671523473266537,0.0834843113178339,-0.04497777361989153,-0.020204503812012997,-0.1757983746392,-0.011770124517121531,0.09948349160681959,-0.18624438546690614,-0.013402871804723144,-0.010675599929206261,-0.1426629253515708,0.010187259368773113,0.16669476594071403,0.06427780892347298,0.007764990220110265,-0.06909174375561902,-0.017409839669314645,0.13226522789638484,-0.07084381176798439,0.036529382373702186,0.027745460964446692,-0.0642463880243584,0.013284027686993908,-0.034094355408438554,0.05971453159233911,-0.06650228834844088,-0.26109229415593044,0.1435913395748647,-0.09481936349837616,-0.17118952735884618,-0.10256822145762495,0.11626917272410313,0.029527545108011408,0.028967764290922945,0.2711459037198904,0.09753846444770879,-0.08914284545451424,0.026764950725031187,-0.17401786726366195,-0.02586479186168155,-0.06624250420583935,-0.06248672255726401,-0.0018212212621770368,0.036131435527141424,0.09245272959205142,-0.015221330721146772,0.01914638906118457,-0.046251552241927785,-0.07109779412183864,0.06465408518472622,-0.05305930417870649,0.13130505946591425,-0.013236726708641806,-0.056066501500910394,0.006841329616483199,0.015212686512630962,0.09506804766674172,0.01290133804768411,-0.04422328989970998,-0.030699675424990074,0.02826296446560006,0.2371539985186205,0.062094262232049086,0.1307948306867957,-0.06466531447923297,-0.13651091213100275,0.03817256779383074,0.043842854586720194,0.1583455323865517,0.08198851121262264,-0.12319122331818778,-0.07459590618080278,0.044466433055319436,-0.027838767536199602,-0.004974258001579205,-0.03161234443060471,0.07455224453770878,0.09900059614199312,0.10375687923410817,-0.06836883702471978,0.059442328669390386,0.06684860746489234,0.18229159699657618,0.03935796310127563,0.016396085210412623,0.04177852866758277,0.002076957555949107,-0.15377484200266706,-0.05494511340124355,0.05893924599976776,0.07332012320452565,-0.03375108011217058,-0.10904333146100638,0.043810573494255475,-0.043740062465182035,-0.009516423989963923,-0.1514730536868292,-0.03307811081383683,-0.05680832527362556,-0.044039002473503015,0.016272499856156114,0.20216918244141796,-0.13721150202396465,-0.07722262880449669,0.0014527538227034065,-0.18535764324852444,0.05185307410754688,0.053410281541353175,0.0629150191652381,0.01354267256137389,-0.15196353913110533,-0.008393175146325154,-0.030915825872260827,0.049889738567887525,0.05419829224080743,0.03821717671624002,-0.0268273145447452,0.13920597667821577,0.02020163185191817,-0.047781389342319215,-0.04980822160531994,-0.00401237554448922,-0.1737032758792051,0.08271159834423789,0.03975859749040871,-0.1831712096102377,-0.1612005772678024,0.04396448363660077,0.22779127348688222,0.017593178618222606,-0.026955038508847926,-0.06869978482427247,0.026040942129190846,0.012200818960904391,0.011168962290976553,0.016087131441449118,-0.13116919497246052,0.01038868711873215,-0.16909751065674677,-0.091931539543798,0.10899611611095383,0.167031988864639,-0.01751675626704315,0.07405148256144657,-0.23037346176576612,0.1272439173554931,-0.05728531086118431,-0.0649745397256526,-0.023224965480654062,-0.12590169650746486,-0.052598381726147704,0.09484832316907796,-0.10469625292550441,-0.07121753198445883,-0.13754230438635007,0.026522146830154917,0.1650468112474742,-0.021412397959180998,0.047399321185365516,-0.0287718771140513,0.1094103868429949,-0.13204278418944101,0.09521983718831271,-0.009927696862071574,0.046925907197826126,0.18622653349958915,0.141519776434341,-0.009256366120656544,-0.03213648755051662,-0.051542901705099266,0.025197885411878226,-0.1460513232078693,0.07917893914109793,-0.20023210220231424,-0.06291683178789227,-0.003172695233860058,-0.06730820230330722,-0.15301805240796018,0.059599980655794964,-0.08031213179276653,0.0912314951427394,-0.07007857431371119,-0.10982953357122276,0.07561793416768048,0.10820269524283037,0.11194926576129709,0.08012232637399427,-0.10141280810813603,0.06602483838580513,-0.11251362438092759,-0.03399433965863273,-0.19822235714418038,-0.0744174094033174,-0.056586156872008186,0.013714538323185579,0.15397823860315465,-0.22443115000812694,0.005395115780482565,0.02715366643824283,0.13726061407964707,-0.10745897420669186,-0.0809468139162388,0.012836870612831036,0.1001899229036339,0.010504726864524104,0.09124900175024238,0.09447920548691248,0.027300503241188493,0.07569391843248359,-0.1114397841743643,-0.06306569586995324,-0.2615047331717221,-0.011658424940078422,-0.10247866538412981,0.0984726301768247,0.076414929107172,0.013143565094340894,0.032351066102590156,-0.0005076724856267024,-0.06815798183548831,0.1001420668257538,-0.06382597139742238,-0.12374738780498831,-0.06511975412283787,0.009268737298275759,-0.09897210944214456,0.039582081375637616,0.06014725900226981,-0.012089675005372951,0.0992115440237344,-0.1983305875790123,0.007734140761357656,-0.0454746056286146,0.12229865906851829,-0.10557158957071341,0.08201089179364127,0.056848752186467164,-0.17549010276502497,0.0408601832678109,-0.02459891429702565,-0.01442693279897551,-0.054729063803305986,0.1525161196671568,0.07822032917626633,0.14580989380027587,-0.013060330410722337,-0.002164904252699104,0.033636235201035584,-0.10903155042899791,0.06312144496451916,-0.05885886156711205,-0.16195495114060732,0.021771776987056485,0.06085203452795859,0.3265007697526496,-0.0797544984843358,0.06737747782247029,-0.08811270152610874,0.048029634414311385,-0.049710421889473874,0.08127185845089976,0.18333374190077972,-0.07858314633746381,0.12976470844745,0.17219110146891076,-0.08089526533743249,0.18739995652839309,0.29805142258985245,-0.028468563367029104,-0.01816650305070016,0.01778813339592364,-0.05229362959705033,-0.010926337293937933,0.017412131216550466,0.09840478164025226,-0.04451791613946054,0.12229632660761573,-0.13900837875124591,-0.020260452832340462,0.008046034015290606,0.048628862256626486,-0.01896959278780032,0.2075875053980134,0.05325669362326689,-0.09944225963349253,0.0742972354616297,0.0630880474577234,-0.048845982291430896,-0.07628650701093788,-0.0022528608670456898,0.1534031086924869,0.030570134020079142,-0.16582537597139071,-0.15091454950485797,-0.033520488458552704,0.09603537463992089,0.013827818762943018,-0.04078771495711978,0.10852671095513187,-0.1292595124233473,-0.07527277299238992,-0.003354974537949482,-0.12154041839779849,-0.06846912378912262,0.09166540255015374,0.057420969180881784,0.08146701482052845,-0.13894725977717598,-0.08404936246339091,-0.0163939193248418,0.015545965337085695,-0.02261150120696107,-0.012106184889278133,0.11048711182474083,-0.046933871142744756,0.015152082945284619,0.006937142862772731,0.09317683202105796
-0.18631492003245143,-0.06788860085659527,0.18186912194798047,0.18830951083377429,-0.16504496201495655,0.10448789136246767,-0.15406789134096335,-0.006977967937265421,0.017269875789856774,0.04845784089338923,-0.08444984216816137,-0.08692260936091407,-0.026670567159695013,-0.09604741930410213,-0.17831152515707382,-0.0863245402401861,-0.04095386350402627,0.09818459832137953,-0.09254240890148684,-0.08348593580663566,0.025040827403497553,-0.029003362694061754,-0.11340379400955691,-0.0918872904175336,-0.07509581624524708,0.06457082208645044,-0.12904836220220933,-0.02751093449864462,-9.278507975402604e-05,0.10678815630139303,-0.09830424405151501,-0.13490903435402005,0.10798687490868222,-0.043295816671149595,-0.059847927154035266,0.11486067045571616,-0.0029269615424369583,-0.0547404606819935,-0.08761093530632369,-0.01031289916618914,-0.011541694948070138,-0.009585889482593056,-0.05380093575763603,0.08857328781178152,-0.11933053550499617,-0.1557084543803034,0.04959134421985679,-0.1716714637573008,-0.03365493802432059,-0.004173459412529081,-0.03503632469179917,0.22804969601506475,-0.003197460425976827,0.16402972339635055,-0.011342355833318692,0.09852408742359203,0.0408310574952498,-0.029061172215663185,-0.021436281470375376,-0.13391287387196468,0.10351852466758633,-0.12538175722224912,0.012728161203697389,0.024367011561825556,-0.13148028720164237,-0.1327547794256217,-0.05894265453045527,-0.05538675238440408,0.16850158629542128,0.138464864818031,-0.11263770563989826,0.12308769226253001,0.039459496797401905,0.00899279383642328,0.024398583363872545,0.21772028708530733,0.026467757462332465,0.3041579460816011,-0.1985085094019335,-0.027644810457056065,-0.13854548476434475,0.03684633620973399,0.14101661899025905,0.19556197312424803,0.14854740240726955,-0.07559564720760403,-0.06942006267767553,-0.14608392618492813,0.024078652400476068,0.08965339011831376,0.04465540061737629,-0.019783816173989062,-0.09357610586881782,-0.09873834948279003,0.07889524864279948,0.004779642460321144,0.004295907590209942,-0.20927597404735604,0.06430746289200627,-0.027865701421194877,-0.00235764505230736,-0.0782211279541189,-0.15085001594834435,-0.1620869526223244,-0.01128147724445583,0.11925840780270336,0.055376317350005026,-0.15587101242126522,0.053126502324610296,0.04022957125230181,-0.032946076617585966,0.030527621475736563,-0.00688845414220227,-0.034979375504161046,0.038906899810943786,-0.008282242924091568,0.0534361188759914,-0.04987868462583182,0.03954684390747401,-0.15810740320307842,-0.02877282946411047,0.11450047526936241,-0.04269661741222618,0.11231999862713433,-0.1792616753321066,-0.10669960825723164,0.05875534563012602,0.1386664875143126,0.024884338853940514,0.11715345766885726,-0.014036243861659576,0.08040864082597309,0.054974408598781103,0.12228618033051027,-0.09693509504041381,-0.029595494401914113,-0.11298016585822586,0.16759434837788517,0.04842805236855575,0.09671238273955557,0.026191176756829485,0.12549138085758557,0.035590814619470855,0.039005250287976315,-0.0801595454296449,-0.025547342100925165,-0.05563648282814831,0.16909790552721862,-0.04721485652227813,0.03990850607222677,0.11671902681803387,-0.0638871624582693,-0.035469748787149834,-0.07760745521749635,-0.061448171676244126,0.0058249855173879116,-0.14044571307064935,-0.13625297972266773,-0.07469284102793565,-0.04702711283522579,-0.09936383532411774,0.0971102105033324,0.08115868290764458,-0.10893436288357582,-0.054788286792937825,0.05721164751391749,-0.012526269177961813,-0.10234465881523623,0.07502496732731957,-0.12534357681991787,-0.12991469391016724,-0.045218034947109575,-0.011849934132966556,-0.09823778045290316,-0.039407089591426955,0.16005943688388236,-0.13580275955246102,-0.014688167178255138,-0.06981895382187052,0.016903424445985093,0.1021052065680343,0.0036944036532871173,-0.030276845763964274,-0.03277669555545397,0.0036676382324938163,-0.1244509410909725,-0.10793130576438059,0.012157298228745936,0.003178084393660119,0.09239946092702023,-0.05229357792895222,0.08720063713280356,0.06231641483047863,-0.06411322672715603,-0.1022518172863012,-0.05523715255425461,-0.038219315492591416,-0.05382987419560758,0.019424706054474918,0.015395745193833694,-0.0877644741051541,0.023942651978006945,-0.004082248476333654,-0.14364414846576679,0.004553658031762738,0.009591791925323641,-0.07724657851488287,0.017057210385950736,-0.02901436373697467,-0.1156791104233435,-0.12605644193332002,0.056613934323714823,-0.02760986432401501,0.05566746850012793,0.19114838383246938,-0.0378039691336548,-0.0589547795658301,0.09313795838037547,0.05690913151422399,0.14872087479053137,-0.08196045829383576,-0.020719799352473676,-0.023600881469594104,0.02834132588968287,-0.018271331498331805,-0.03825900378886575,-0.13924408066251445,-0.031568995027801604,-0.12305961254173135,0.06061396409777915,0.06405849500525718,0.07039502092398486,-0.037216702104880726,0.10035118564404431,0.0657767778051674,0.024192568780243742,-0.006971148709780161,-0.29487629122020664,-0.05909039637704075,-0.004127054533454269,-0.04491402345903776,-0.02027132016324099,-0.04536261775015185,0.04425143097068163,-0.026791167838266752,0.13829926878453008,0.016459551068699035,0.07460854853953018,-0.098384803129973,-0.18819639212112851,0.049699765662778145,0.14466086409735202,-0.07684904959986498,-0.10146089032444788,-0.08074821047487821,0.03916044152824865,-0.03784881039345449,0.02673257988320249,-0.1644434845653376,0.09885844019395645,-0.27147724256300365,0.07913251041322829,0.01634520704496387,-0.03911578851465911,0.068643674889459,-0.07252804517864915,0.08938626212099085,-0.10823210551069969,-0.07084154623912158,-0.12339062845251275,0.12816251388075217,-0.20143133213492626,-0.05964009782123916,-0.02421433869490625,0.09038067784169422,-0.02871361075777822,0.08391476421743838,-0.00906878140347023,0.06051784297305231,0.05888777746920944,-0.019541850060834063,0.004016319587634254,0.16659928023890724,0.02922748263452083,-0.004520070447698077,0.02064000612748488,-0.0039709400638001605,0.24754515708691965,0.00830641905804441,0.2312066888113062,-0.13930956351317575,0.13471283031170803,-0.09093399958859379,-0.06094233110351236,-0.2108083673883185,-0.04531869762286885,0.2781057395666303,-0.2733716228978576,-0.06167415015386301,0.21040942030471116,0.004066332507093837,0.16554806266624825,-0.014042210856059768,-0.09729007621548456,0.053369263257856805,-0.10945894417117269,-0.07664564674939083,-0.0060847603998692296,0.0615681491334288,0.08545193667792186,-0.0043127087965841885,0.03697657079968644,-0.09329199240753848,-0.22027177813911455,0.21296634527436262,0.07986918822739021,-0.059841622440537805,0.0980873909388871,0.12310415518048863,0.011029838005121126,0.125933252082712,0.09835173288872705,-0.20514959774122388,0.16846988530987636,0.09880109056573706,0.12155414935995741,0.04657989806128372,0.05802917145840322,-0.0808472062691386,0.1498788835029571,-0.2544471206815805,0.08271944474060562,-0.15704411517805583,-0.07378017558669707,0.028831958568532032,-0.002876719354613596,0.11632922958745151,-0.04064790729710071,0.08524699515042065,0.15932377051770602,0.011921889417592299,-0.06334798302219768,-0.08798768157398193,-0.0807247815637184,-0.12504407402522083,0.12162797015346356,-0.0711255759924625,0.1333066564620491,-0.0872829000382863,0.01975720119854354,-0.042294160378815976,-0.12274279914967585,0.0922066900897684,-0.08593846324190255,0.1495419590513257,-0.026744772928334933,-0.25775185399498124,0.0523047046115398,0.1063918083415838,0.12962035937806496,-0.16938347632363238,0.05342534498953097,0.2736784523694093,-0.0666071465373684,-0.034494157759140706,0.08521558072211588,-0.0811907244009463,-0.012101105395954296,0.01907902334547046,0.054258151513983936,-0.17870489428585057,-0.04526664786152658,-0.0778250395169456,0.06209382934266127,-0.048660502401646835,-0.20254214653590977,0.03754889795710942,0.06892480133984301,0.07198781720278477,-0.14677266226421354,-0.20776104290537756,-0.034993551739934535,0.02708442713209542,-0.006787846534685879,0.05218398422194115,0.028461105707762748,-0.12270066789493328,0.007412548166999232,0.15356835696166124,-0.052236877479535475,-0.043818187583346976,0.041292900438467874,-0.05496355830626836,0.03898786460826672,-0.000896301646323996,0.08604881095571146,0.0677124624590472,-0.031771350051903395,0.07452457420025259,0.10322718794490622,0.0022665717206850878,0.036710516369405866,0.08304866857752025,-0.1687368268951324,-0.12224210083440566,-0.022104312529586233,-0.12816487785765268,-0.16384802243505459,0.011552914659755014,-0.07208064914998073,0.06336954379902685,-0.032652939150722746,-0.01207067808475198,-0.028351259554614483,0.06324690054598064,0.04273836177690491,-0.052122505679158826,0.04060879756257463,0.031174933550681756,0.04809606027285432,-0.0060303650547799985,0.03323413363308899,0.02756718238040311,0.22897973984716147,0.04797769650219109,-0.14913709302304493,0.017049720487174454,0.23496398053051848,-0.16611672840772126,-0.06160302573884727,0.12561749362794347,-0.06841717399018414,-0.15788007673362478,-0.05398865478107595,-0.01594788462954788,0.07446606424651642,0.09925861355518084,-0.09339212908692517,0.06726115098617196,-0.02792536348210775,0.026795325821070467,0.11380345938717969,-0.164835070957558,0.17931650219453465,0.07166843998582538,-0.0282739173780073,0.01091423691092055,0.014745419610131712,-0.06865326009170448,-0.16990514179848965,-0.14165136533509853,0.08740250439548103,0.0875262193695473,0.11653365158703069,-0.0034412035266730224,-0.004731738400990705,0.043307804139692985,-0.0826361638695744,0.07523777277653249,-0.09017094776332579,-0.07186868240067475,0.09259249894621863,0.17169468419064568,-0.12812406340650392,-0.01221464723407508,0.0293126199868134,0.06119704000282559,0.01014463564825406,-0.038979661321160715,-0.007986694999809914,0.036878536255666734,0.09232096939606295,-0.10149964306494089,-0.11242137663511093,-0.0134210445530153,-0.025083406357664234,-0.00030425535540956936,-0.023086838688641562,0.01668845691560055,0.111437999703932,0.1660007338216408,0.1168866629817251,-0.043483771883307286,-0.04696197781039012,0.036429703662911476,0.2069023696506087,0.06777619856446798,-0.0014429941511304627,0.036552492933677704,0.049325878698213914,0.11942586674982869,0.004678890912194154,0.02855583423027937,0.0026722895282456915,0.09529323889009238,0.007339515788127896,-0.06368561637255593,-0.1045185053579437,-0.03684527855166788,-0.014014057491838552,-0.05146445299889808,-0.08681685224401302,-0.001140965936608981,0.07992640751204703,0.04365598851621518,-0.02972509648655801,-0.19314362677964192,-0.07643212440409602,0.04024144503803889,-0.04277098280473448,0.008238319452600607,0.22365288057218558,0.03232870207906961,0.05564377447775919,0.000933788685174156,0.04412247879467082,-0.11090469515672603,0.1255382762637026,0.0854056941310136,-0.07031094616693011,0.020601845148882025,0.0875801142670001,-0.0830126963614608,-0.17208566189150135,-0.06179737905752223,0.08937572279503883,-0.10056701231202564,-0.1873324831388768,0.007863370339415919,-0.07094169025969639,-0.044142959802550175,0.007965282365691504,0.09909034476308108,-0.07518641568139883,0.15416406121015816,-0.01933882201411674,-0.0626950137636503,0.06400534375348375,0.09265797748497724,0.06909237000020363,0.07170474263383496,0.032207564333887655,0.09336648890890875,-0.013036569658445712,0.1999167444387983,-0.146010915509516,-0.04068017142615313,0.12082589245143492,0.010181346181727963,0.04746363317262008,-0.05405968604985441,-0.09400186362552747,-0.09043021916947619,-0.056206962294109555,0.05454553234130374,-0.03057675881190022,0.04242507203070736,0.013279199899817932,-0.06715262067444282,0.010917334411272477,-0.11629946054485563,0.056406638188862795,0.17806363316379606,0.10265491088003298,0.11963561928517137,0.017559685563327068,-0.05284307053674517,0.07013097117269765,-0.023174532044817786,-0.05321845077446433,-0.054996865929972785,0.12995675391752814,0.0014817555076041317,-0.08659223451232345,-0.055614441153945385,-0.1419332127218365,-0.0387685517423593,0.08588066379434763,-0.014976162270565236,0.15276579714783212,0.03706643413469085,0.21439987900065027,0.06010136679663019,0.04791777886698881,-0.05519289496596524,0.014802034609492642,-0.10336527350585022,-0.05827979220863997,0.03348704203893132,-0.02770955861623442,-0.0945739350971072,-0.09588601354855812,0.07540994176069848,-0.024605024696774808,-0.07079697925934035,0.05019753854415329,-0.03902343860412894,-0.1795461114964379,-0.16747072221834772,-0.03228649709334894,-0.07489003590397218,0.120416710221256,0.06411107808268755,-0.13359889976471484,-0.025380872011431174,0.011723848776232454,0.04259161038881343,-0.15219877688855707,-0.10593455253784051,0.06614912088511037,-0.0009046666301304926,-0.04262444434635567,0.29716424496047467,0.1678419601991433,-0.04106075443941187,0.057546875927057574,0.09729167308047557,0.09154137556993021,-0.20717727864023622,-0.027933810637410728,-0.003552156887828096,0.21838986288451367,0.05296106867377936,-0.11502741846987269,-0.0345527312535385,0.07710398310037796,-0.031794502062253024,0.014376813904696906,0.044821370379129116,-0.020727323379510547,0.10513493711545115,0.1629228471468299,0.06330326489351734,-0.015174951618193737,0.04770919414908995,-0.3252875046590178,0.0275094641912602,0.2140788593931341,-0.10566846656888576,0.011693760672394417,-0.009463618215483423,-0.049837804411995985,0.1043169850470157,0.07520537464458436,-0.15558835100498936,0.07564199756716761,0.005280455694604033,0.14274664812796975,-0.011646331430023311,0.02248280801056364,0.06444933817921088,-0.07153313544130531,-0.16124323176079117,0.089888138619737,-0.12598930458222446,-0.034219899222449585,-0.050192413255562854,0.005890538200451895,-0.0926303027656254,0.1011462055211623,-0.12787163252152411,0.046135594958393554,-0.05599814679977677,-0.05584989850866087,0.04698193959234349,-0.1046836372007397,0.039398333373754875,0.05979490291343934,-0.07630468599985842,0.0633106578416363,0.06524865854129404,0.28927898729506507,-0.031233015106129487,0.07773974584884047,-0.16040620664303692,0.07857305546623886,-0.057873231745355136,0.08358124929884325,0.07388470223886894,-0.10537499825040207,0.03313743903105079,-0.06444640837292952,0.07076488250111677,-0.021625722657274537,0.13873221968713365,-0.08946437168896547,-0.1499845447204182,0.13005216868254535,0.08183249605989583,-0.11209382880620469,-0.08136775356134587,0.06075023454097803,0.018834102866588473,-0.14361256409619338,-0.027044649092602374,0.08348622508424114,0.1619049037552374,-0.07218823745531742,0.12422646318784819,0.08283430685227697,0.06595635125736138,0.09581718526180101,-0.006085656156743827,0.022121284720588403,-0.02428933668621605,-0.0038968863592608437,0.16156849603311882,-0.05690914048588516,0.15843141653874487,-0.08043047496960723,-0.05831580249215275,0.09855566524085768,0.059272415036227,0.06188220112853794,-0.15753955425632626,0.13984709848026924,0.05260518439878053,-0.09540166259102602,0.10713659436461494,-0.15559034034527353,-0.012307816868295024,-0.07581014054926928,0.14129223660214676,0.0035368937825360825,0.04838528539525334,-0.03731812638770679,-0.0666903185198276,-0.016725145953742068,-0.12109010514878078,0.0913001385100105,0.06332402566632182,0.09970744363201467,0.11983200140313782,0.060295739786392404,-0.05884072576418738,-0.09289428741950823,0.15967655760263308,0.14917686104513897,0.02815985853232719,-0.010141318759253228,-0.07838051231996201,0.024910156850846528,-0.009571762263423367,-0.08406075446963635,-0.0069197730374654645,-0.05812739678268353,-0.11667928128120675,0.1023318537793021,0.016814147839682075,-0.03706865618793688,-0.017501161813186297,0.08696766302545059,0.03492414852715448,0.08384933100804531,0.08935406928623535,0.25126728892770955,0.005402811916484338,0.05254627822225937,0.14250630468974748,-0.14847756467373793,-0.17095245177647467,0.005158689788376294,-0.14793242495940653,0.0464657979353043,-0.16275582292064433,0.011053714071541534,0.0005207572425269439,0.03641719125941253,0.09319282426387296,0.0391334064469005,0.09107845544288563,-0.05294964981331132,-0.03271982205177049,0.07379574994619535,0.0279591499048831,0.021993167131532272,-0.0007507634302788752,0.055122153548901015,0.09256886075369225,-0.10683744648616922,0.10565984575818917,-0.08025978346083501,-0.3183606239084833,0.006881261021129183,0.16905097563558402,-0.10807320654743265,-0.04691372016525665,0.04902922969492374,1.2760555881363265e-05,-0.02382431585550801,0.026013878900068,-0.17361703882141735,0.22238354316039396,0.009497129955997472,-0.12151686184945437,0.13064049987502435,0.01909313757864122,0.00045838464865411484,0.1904549895206663,0.07733108562257213,0.07341296628515988,-0.07532648710209175,0.012921639719906378,0.06389026177528492,-0.059842511729633334,0.010195011923673294,0.04907922256311367,0.04628138179451858,-0.061879282894191104,0.11052083459310086,0.1788788028121888,-0.00275097841151373,-0.06678672903159441,0.10589033754270656,-0.020788334523222235,0.14899942560264948,0.1880854842006596,0.05080520074541287,0.04914914545265603,0.0373776264653937,0.08799696235034987,0.1553265895989153,-0.12038855548773258,-0.11045904136745566,-0.06939648160117969,0.08214143680587976,-0.07961016011757352,0.11739591321712733,0.27214413611989324,0.08642036789600444,-0.0011276502764716375,0.04504365196004292,0.06310753908345917,-0.061761848875477414,0.06576636754554362,0.12435573828777319,0.15750329274916594,-0.03239339759743246,0.027358216467991615,0.06802925005613038,0.18501480462322034,-0.051897268599717376,0.07404446372055756,-0.0383356541929573,-0.018742072612054198,-0.0725677445166054,-0.10162720487223087,-0.0057943596811403505,0.06159951284439356,-0.005829015580427029,0.10604301123515499,-0.0856711269906532,-0.15263152319650677,-0.17613814511883025,0.026924569442706422,0.11801286449687554,-0.008501759761587723,-0.07365523249791316,0.0687514067663804,-0.1405031180143346,0.09831679168735728,-0.11098000936465116,0.012677767786118075,-0.006534859555533314,0.014012551942059973,-0.015044241782997347,0.05884292265426453,0.028995703724766814,-0.06849453103243913,0.17225797467882809,-0.060300933764279065,0.04958037157848675,0.0011490055109259364,0.1043906993362618,-0.1181813381138182,-0.007741036122593316,0.0953005256620208,-0.0032340049565903425,0.1607578827758689,0.28061041060766384,0.07311136274947298,-0.07134669682675758,0.025059108333827025,-0.024881828235615373,-0.07865056491350088,0.005801118546498723,0.017103227016672964,-0.09283101766570132,-0.2655286941894772,0.041834878042988216,-0.08234323136983955,-0.003863784289302898,-0.08140389558744093,-0.04233021037172091,0.10794920634747518,0.00601813736528993,0.06905571066190572,-0.1005544535305208,0.01749644009991266,-0.2411319516259392,0.07293370428103277,0.07242586251938453,0.02677161385684558,-0.04570963131883912,-0.18263806442726038,-0.0005490870964900959,0.028315238579563945,0.08090307082225934,0.055475989985866316,0.04283896837640544,0.12452052290644616,-0.108223789358916,-0.017764515040685706,0.10611366428459555,0.10386448547763627,0.04452212484907778,0.1409501524064701,0.01624662037139046,-0.037794240496581054,-0.0399108465957343,0.019202587088646035,-0.1628253135335505,0.07325996035332114,-0.08550789677105451,0.12202625135231566,-0.1729622871306078,0.1008931541178007,0.004175240883640928,-0.0563493810511943,0.14156849003961522,-0.0457992343578036,0.0630493143870666,0.25300096571483144,-0.0014137217854504113,-0.0006939896916036583,0.04052123476757408,-0.11281760833142665,0.1359418007812436,0.0814906938482526,0.20992126721549034,-0.05168441238729742,-0.18230838870635416,-0.08856804629044898,0.010515495421332073,0.02479390937008079,0.04180709468044553,-0.0069521923435645104,-0.11366451881902295,0.026024458185736933,0.2064436802198611,-0.03811765643881323,-0.0764886621203643,-0.09362275205891779,-0.1061241324999691,0.07349524377662185,0.14235726551484226,0.005192885293699308,-0.08631649082701975,0.06409153038338078,-0.009589166640541161,-0.18924111936800603,0.07793901950499504,0.04117625801906397,-0.0405274721520744,0.09313289805333513,0.11915626513854796,0.06686552231479947,0.03717075939058507,-0.08453230573300317,-0.01500567457123487,0.008367475307882156,-0.08314996633268197,-0.0614143305983785,-0.021798782384031802,0.2134209337900992,-0.09257790962707879,-0.021753983655816114,0.08838743720524878,-0.1745913126052953,0.008618405995392554,-0.010844827888342672,0.043557182439098834,-0.02276076577499187,0.13193610547470191,-0.11552522506301809,-0.09301375568650846,0.18338178703685037,0.01281032524449801,-0.008399663093787,0.1308890078344366,0.03777913267589317,-0.0031150535833952366,-0.08949633435267011,0.11774659708995945,0.008603726943547708,0.020099630083481628,-0.104097434079134,0.09603258977027258,-0.09586663678951599,0.07309845434701712,-0.004928216816200899,-0.18163764615332245,1.6280463190163457e-05,0.1589455548479385,0.16199947157932876,-0.05535611762951768,-0.08715071758071405,-0.07240953836294477,-0.0009476020716038674,-0.18547609595537629,0.05664678291213032,0.06896546931468736,-0.02977341388799697,0.012412168133163218,0.06337394474203906,-0.05424771528173347,0.12627363604765426,-0.06564484097658484,-0.019211548418139473,-0.05681548479947737,0.07984690691523179,0.003970856485505861,-0.0707401195159105,0.005129350108231061
